{"learner":{"attributes":{"best_iteration":"296","best_score":"0.49067363964343813","scikit_learn":"{\"_estimator_type\": \"classifier\"}"},"feature_names":[],"feature_types":[],"gradient_booster":{"model":{"cats":{"enc":[],"feature_segments":[],"sorted_idx":[]},"gbtree_model_param":{"num_parallel_tree":"1","num_trees":"981"},"iteration_indptr":[0,3,6,9,12,15,18,21,24,27,30,33,36,39,42,45,48,51,54,57,60,63,66,69,72,75,78,81,84,87,90,93,96,99,102,105,108,111,114,117,120,123,126,129,132,135,138,141,144,147,150,153,156,159,162,165,168,171,174,177,180,183,186,189,192,195,198,201,204,207,210,213,216,219,222,225,228,231,234,237,240,243,246,249,252,255,258,261,264,267,270,273,276,279,282,285,288,291,294,297,300,303,306,309,312,315,318,321,324,327,330,333,336,339,342,345,348,351,354,357,360,363,366,369,372,375,378,381,384,387,390,393,396,399,402,405,408,411,414,417,420,423,426,429,432,435,438,441,444,447,450,453,456,459,462,465,468,471,474,477,480,483,486,489,492,495,498,501,504,507,510,513,516,519,522,525,528,531,534,537,540,543,546,549,552,555,558,561,564,567,570,573,576,579,582,585,588,591,594,597,600,603,606,609,612,615,618,621,624,627,630,633,636,639,642,645,648,651,654,657,660,663,666,669,672,675,678,681,684,687,690,693,696,699,702,705,708,711,714,717,720,723,726,729,732,735,738,741,744,747,750,753,756,759,762,765,768,771,774,777,780,783,786,789,792,795,798,801,804,807,810,813,816,819,822,825,828,831,834,837,840,843,846,849,852,855,858,861,864,867,870,873,876,879,882,885,888,891,894,897,900,903,906,909,912,915,918,921,924,927,930,933,936,939,942,945,948,951,954,957,960,963,966,969,972,975,978,981],"tree_info":[0,1,2,0,1,2,0,1,2,0,1,2,0,1,2,0,1,2,0,1,2,0,1,2,0,1,2,0,1,2,0,1,2,0,1,2,0,1,2,0,1,2,0,1,2,0,1,2,0,1,2,0,1,2,0,1,2,0,1,2,0,1,2,0,1,2,0,1,2,0,1,2,0,1,2,0,1,2,0,1,2,0,1,2,0,1,2,0,1,2,0,1,2,0,1,2,0,1,2,0,1,2,0,1,2,0,1,2,0,1,2,0,1,2,0,1,2,0,1,2,0,1,2,0,1,2,0,1,2,0,1,2,0,1,2,0,1,2,0,1,2,0,1,2,0,1,2,0,1,2,0,1,2,0,1,2,0,1,2,0,1,2,0,1,2,0,1,2,0,1,2,0,1,2,0,1,2,0,1,2,0,1,2,0,1,2,0,1,2,0,1,2,0,1,2,0,1,2,0,1,2,0,1,2,0,1,2,0,1,2,0,1,2,0,1,2,0,1,2,0,1,2,0,1,2,0,1,2,0,1,2,0,1,2,0,1,2,0,1,2,0,1,2,0,1,2,0,1,2,0,1,2,0,1,2,0,1,2,0,1,2,0,1,2,0,1,2,0,1,2,0,1,2,0,1,2,0,1,2,0,1,2,0,1,2,0,1,2,0,1,2,0,1,2,0,1,2,0,1,2,0,1,2,0,1,2,0,1,2,0,1,2,0,1,2,0,1,2,0,1,2,0,1,2,0,1,2,0,1,2,0,1,2,0,1,2,0,1,2,0,1,2,0,1,2,0,1,2,0,1,2,0,1,2,0,1,2,0,1,2,0,1,2,0,1,2,0,1,2,0,1,2,0,1,2,0,1,2,0,1,2,0,1,2,0,1,2,0,1,2,0,1,2,0,1,2,0,1,2,0,1,2,0,1,2,0,1,2,0,1,2,0,1,2,0,1,2,0,1,2,0,1,2,0,1,2,0,1,2,0,1,2,0,1,2,0,1,2,0,1,2,0,1,2,0,1,2,0,1,2,0,1,2,0,1,2,0,1,2,0,1,2,0,1,2,0,1,2,0,1,2,0,1,2,0,1,2,0,1,2,0,1,2,0,1,2,0,1,2,0,1,2,0,1,2,0,1,2,0,1,2,0,1,2,0,1,2,0,1,2,0,1,2,0,1,2,0,1,2,0,1,2,0,1,2,0,1,2,0,1,2,0,1,2,0,1,2,0,1,2,0,1,2,0,1,2,0,1,2,0,1,2,0,1,2,0,1,2,0,1,2,0,1,2,0,1,2,0,1,2,0,1,2,0,1,2,0,1,2,0,1,2,0,1,2,0,1,2,0,1,2,0,1,2,0,1,2,0,1,2,0,1,2,0,1,2,0,1,2,0,1,2,0,1,2,0,1,2,0,1,2,0,1,2,0,1,2,0,1,2,0,1,2,0,1,2,0,1,2,0,1,2,0,1,2,0,1,2,0,1,2,0,1,2,0,1,2,0,1,2,0,1,2,0,1,2,0,1,2,0,1,2,0,1,2,0,1,2,0,1,2,0,1,2,0,1,2,0,1,2,0,1,2,0,1,2,0,1,2,0,1,2,0,1,2,0,1,2,0,1,2,0,1,2,0,1,2,0,1,2,0,1,2,0,1,2,0,1,2,0,1,2,0,1,2,0,1,2,0,1,2,0,1,2,0,1,2,0,1,2,0,1,2,0,1,2,0,1,2,0,1,2,0,1,2,0,1,2,0,1,2,0,1,2,0,1,2,0,1,2,0,1,2,0,1,2,0,1,2,0,1,2,0,1,2,0,1,2,0,1,2,0,1,2,0,1,2,0,1,2,0,1,2,0,1,2,0,1,2,0,1,2,0,1,2,0,1,2,0,1,2,0,1,2,0,1,2,0,1,2,0,1,2,0,1,2,0,1,2,0,1,2,0,1,2,0,1,2,0,1,2,0,1,2,0,1,2,0,1,2,0,1,2,0,1,2,0,1,2,0,1,2,0,1,2,0,1,2,0,1,2,0,1,2,0,1,2,0,1,2,0,1,2,0,1,2,0,1,2,0,1,2,0,1,2,0,1,2,0,1,2,0,1,2,0,1,2,0,1,2,0,1,2,0,1,2,0,1,2,0,1,2,0,1,2,0,1,2,0,1,2,0,1,2,0,1,2,0,1,2,0,1,2,0,1,2,0,1,2,0,1,2,0,1,2,0,1,2,0,1,2],"trees":[{"base_weights":[7.4909045E-4,-6.9844174E-1,3.626074E-1,9.375549E-2,-6.999596E-1,3.2194544E-2,1.6226147E-1,-4.7564104E-1,-5.5016063E-2,1.439196E-1,2.327647E-1,6.0442694E-2,-5.581208E-1,1.1398575E-2,-1.914993E-2,6.0442694E-2,1.7819865E-2,-5.648818E-2,-2.688804E-1,-0E0,-4.361524E-2],"categories":[],"categories_nodes":[],"categories_segments":[],"categories_sizes":[],"default_left":[0,0,0,0,0,0,0,0,0,0,0,0,0,0,0,0,0,0,0,0,0],"id":0,"left_children":[1,3,5,-1,7,-1,9,11,-1,13,15,-1,17,-1,-1,-1,-1,-1,19,-1,-1],"loss_changes":[5.2573335E3,2.0759277E1,1.3173401E2,0E0,2.2202148E0,0E0,3.2021942E0,7.0588818E0,0E0,1.2147217E0,8.8827324E-1,0E0,2.2782364E0,0E0,0E0,0E0,0E0,0E0,1.9506981E0,0E0,0E0],"parents":[2147483647,0,0,1,1,2,2,4,4,6,6,7,7,9,9,10,10,12,12,18,18],"right_children":[2,4,6,-1,8,-1,10,12,-1,14,16,-1,18,-1,-1,-1,-1,-1,20,-1,-1],"split_conditions":[9.99E2,8.4E1,1E0,9.375549E-2,1.810799E-2,3.2194544E-2,1.0031743E0,1.368758E0,-5.5016063E-2,1.3855392E0,-1.908E-1,6.0442694E-2,1.17E0,1.1398575E-2,-1.914993E-2,6.0442694E-2,1.7819865E-2,-5.648818E-2,1.899089E0,-0E0,-4.361524E-2],"split_indices":[6,6,0,0,7,0,8,4,0,0,7,0,8,0,0,0,0,0,10,0,0],"split_type":[0,0,0,0,0,0,0,0,0,0,0,0,0,0,0,0,0,0,0,0,0],"sum_hessian":[2.0778484E4,7.08549E3,1.3692994E4,4.889168E0,7.080601E3,1.1036839E4,2.6561558E3,6.573214E1,7.014869E3,2.1158838E3,5.402721E2,3.2594452E0,6.24727E1,2.1095828E3,6.300988E0,3.2594452E0,5.370127E2,3.802686E1,2.4445839E1,1.3037781E1,1.1408058E1],"tree_param":{"num_deleted":"0","num_feature":"13","num_nodes":"21","size_leaf_vector":"1"}},{"base_weights":[-1.3952564E-3,-5.877047E-2,1.4487191E0,-4.307162E-2,1.4502414E0,1.1373943E-1,1.0014246E0,-0E0,1.0739624E-1],"categories":[],"categories_nodes":[],"categories_segments":[],"categories_sizes":[],"default_left":[0,0,0,0,0,0,0,0,0],"id":1,"left_children":[1,-1,3,-1,5,-1,7,-1,-1],"loss_changes":[2.2530154E4,0E0,2.2614258E1,0E0,4.248047E-1,0E0,6.7088966E0,0E0,0E0],"parents":[2147483647,0,0,2,2,4,4,6,6],"right_children":[2,-1,4,-1,6,-1,8,-1,-1],"split_conditions":[1.8120338E-3,-5.877047E-2,8.4E1,-4.307162E-2,5.1056104E0,1.1373943E-1,6.0193214E0,-0E0,1.0739624E-1],"split_indices":[1,0,6,0,2,0,2,0,0],"split_type":[0,0,0,0,0,0,0,0,0],"sum_hessian":[2.075784E4,1.3691906E4,7.0659336E3,4.889168E0,7.0610444E3,7.0436606E3,1.7383707E1,4.889168E0,1.2494539E1],"tree_param":{"num_deleted":"0","num_feature":"13","num_nodes":"9","size_leaf_vector":"1"}},{"base_weights":[8.110739E-4,3.8963088E-1,-5.8770653E-2,5.966103E-1,3.3929944E-1,8.643011E-2,5.930572E-1,3.8184777E-1,2.6128544E-2,4.0911674E-2,4.7908552E-2,-1.5945487E-2,3.0154798E-2],"categories":[],"categories_nodes":[],"categories_segments":[],"categories_sizes":[],"default_left":[0,0,0,0,0,0,0,0,0,0,0,0,0],"id":2,"left_children":[1,3,-1,5,7,-1,9,11,-1,-1,-1,-1,-1],"loss_changes":[6.060325E3,1.418357E2,0E0,3.361267E0,2.286255E0,0E0,2.5617065E0,2.4090881E0,0E0,0E0,0E0,0E0,0E0],"parents":[2147483647,0,0,1,1,3,3,4,4,6,6,7,7],"right_children":[2,4,-1,6,8,-1,10,12,-1,-1,-1,-1,-1],"split_conditions":[1.8120338E-3,8.58708E1,-5.8770653E-2,1.0031743E0,8.874093E1,8.643011E-2,-1.376E-1,8.8E1,2.6128544E-2,4.0911674E-2,4.7908552E-2,-1.5945487E-2,3.0154798E-2],"split_indices":[10,5,0,9,5,0,7,5,0,0,0,0,0],"split_type":[0,0,0,0,0,0,0,0,0,0,0,0,0],"sum_hessian":[2.0763227E4,1.3678913E4,7.0843135E3,2.6718735E3,1.100704E4,1.5860843E1,2.6560127E3,1.3299763E3,9.677063E3,5.521067E2,2.103906E3,5.3235793E0,1.3246527E3],"tree_param":{"num_deleted":"0","num_feature":"13","num_nodes":"13","size_leaf_vector":"1"}},{"base_weights":[-3.1164326E-4,3.3405983E-1,-6.762102E-1,2.9648082E-2,1.5085447E-1,-5.3252514E-2,-4.0468162E-1,-2.2955395E-2,1.5232866E-1,-6.429797E-1,1.438888E-2,1.886285E-1,1.4260088E-1,-0E0,-5.543224E-2,8.3513665E-1,-3.8718972E-1,8.510246E-2,1.4091558E-2,1.0855901E-2,1.5765747E-2,9.486689E-2,-0E0,9.3886875E-2,-5.1287364E-2,5.9516523E-2,-3.613427E-2],"categories":[],"categories_nodes":[],"categories_segments":[],"categories_sizes":[],"default_left":[0,0,0,0,0,0,0,0,0,0,0,0,0,0,0,0,0,0,0,0,0,0,0,0,0,0,0],"id":3,"left_children":[1,3,5,-1,7,-1,9,-1,11,13,15,17,19,-1,-1,21,23,-1,-1,-1,-1,-1,-1,25,-1,-1,-1],"loss_changes":[4.686512E3,1.1202063E2,5.187256E0,0E0,1.7239532E0,0E0,8.7773E0,0E0,7.475891E-1,2.5885658E0,1.0553491E1,3.5504513E0,3.0397415E-1,0E0,0E0,3.4158316E0,2.9999907E0,0E0,0E0,0E0,0E0,0E0,0E0,3.1299071E0,0E0,0E0,0E0],"parents":[2147483647,0,0,1,1,2,2,4,4,6,6,8,8,9,9,10,10,11,11,12,12,15,15,16,16,23,23],"right_children":[2,4,6,-1,8,-1,10,-1,12,14,16,18,20,-1,-1,22,24,-1,-1,-1,-1,-1,-1,26,-1,-1,-1],"split_conditions":[1.8120338E-3,1E0,2.0894368E0,2.9648082E-2,1.0031743E0,-5.3252514E-2,1.17E0,-2.2955395E-2,8.628156E1,3.412846E0,4.883166E0,1.7763107E0,8.8491974E1,-0E0,-5.543224E-2,2.9237328E1,3.2223803E-1,8.510246E-2,1.4091558E-2,1.0855901E-2,1.5765747E-2,9.486689E-2,-0E0,7.242025E0,-5.1287364E-2,5.9516523E-2,-3.613427E-2],"split_indices":[1,0,0,0,9,0,8,0,9,0,2,8,9,0,0,9,12,0,0,0,0,0,0,0,0,0,0],"split_type":[0,0,0,0,0,0,0,0,0,0,0,0,0,0,0,0,0,0,0,0,0,0,0,0,0,0,0],"sum_hessian":[2.0734271E4,1.387152E4,6.8627515E3,1.1171815E4,2.6997043E3,6.779179E3,8.357213E1,7.1907988E0,2.6925134E3,5.3848793E1,2.9723335E1,5.540498E2,2.1384636E3,4.3012066E0,4.954759E1,9.938722E0,1.9784613E1,3.8690364E0,5.501808E2,2.0099417E3,1.2852206E2,6.653925E0,3.2847967E0,6.5090485E0,1.3275564E1,3.2801776E0,3.228871E0],"tree_param":{"num_deleted":"0","num_feature":"13","num_nodes":"27","size_leaf_vector":"1"}},{"base_weights":[-5.6855736E-4,-5.7114754E-2,1.2940309E0,1.2948986E0,-3.537171E-2,1.0151421E-2,1.2953341E0,1.0889674E0,1.0166193E-1,-2.813759E-2,9.514426E-2],"categories":[],"categories_nodes":[],"categories_segments":[],"categories_sizes":[],"default_left":[0,0,0,0,0,0,0,0,0,0,0],"id":4,"left_children":[1,-1,3,5,-1,-1,7,9,-1,-1,-1],"loss_changes":[1.9528264E4,0E0,1.2214844E1,2.8671875E0,0E0,0E0,2.4707031E-1,1.3398102E1,0E0,0E0,0E0],"parents":[2147483647,0,0,2,2,3,3,6,6,7,7],"right_children":[2,-1,4,6,-1,-1,8,10,-1,-1,-1],"split_conditions":[1.8120338E-3,-5.7114754E-2,2.73624E-1,2.4048309E-1,-3.537171E-2,1.0151421E-2,4.8607817E-1,1.3940232E0,1.0166193E-1,-2.813759E-2,9.514426E-2],"split_indices":[1,0,7,12,0,0,12,4,0,0,0],"split_type":[0,0,0,0,0,0,0,0,0,0,0],"sum_hessian":[2.0715186E4,1.3258698E4,7.456488E3,7.4533E3,3.1883762E0,3.3435864E0,7.449956E3,6.879208E1,7.381164E3,4.998033E0,6.3794052E1],"tree_param":{"num_deleted":"0","num_feature":"13","num_nodes":"11","size_leaf_vector":"1"}},{"base_weights":[3.0015945E-3,3.6241215E-1,-5.7053138E-2,5.490272E-1,3.1659248E-1,3.8915012E-2,5.623274E-1,-2.3394175E-2,3.169382E-1,7.688817E-2,4.3891937E-2,2.837738E-2,2.4349287E-2],"categories":[],"categories_nodes":[],"categories_segments":[],"categories_sizes":[],"default_left":[0,0,0,0,0,0,0,0,0,0,0,0,0],"id":5,"left_children":[1,3,-1,5,7,-1,9,-1,11,-1,-1,-1,-1],"loss_changes":[5.4426206E3,1.1815259E2,0E0,1.1090698E0,2.4561768E0,0E0,8.33313E-1,0E0,2.6983643E0,0E0,0E0,0E0,0E0],"parents":[2147483647,0,0,1,1,3,3,4,4,6,6,8,8],"right_children":[2,4,-1,6,8,-1,10,-1,12,-1,-1,-1,-1],"split_conditions":[1.8120338E-3,8.58708E1,-5.7053138E-2,-1.376E-1,8.8E1,3.8915012E-2,1E0,-2.3394175E-2,8.874093E1,7.688817E-2,4.3891937E-2,2.837738E-2,2.4349287E-2],"split_indices":[1,5,0,7,5,0,0,0,5,0,0,0,0],"split_type":[0,0,0,0,0,0,0,0,0,0,0,0,0],"sum_hessian":[2.0717133E4,1.3888831E4,6.8283013E3,2.7338323E3,1.1154998E4,5.667985E2,2.1670337E3,4.9926887E0,1.1150006E4,8.849863E0,2.1581838E3,1.3451753E3,9.80483E3],"tree_param":{"num_deleted":"0","num_feature":"13","num_nodes":"13","size_leaf_vector":"1"}},{"base_weights":[1.0529462E-3,-6.5569806E-1,3.1253877E-1,7.536656E-2,-6.568868E-1,2.771153E-2,1.400394E-1,1.1841854E-2,-6.573888E-1,-2.3661366E-2,1.4154723E-1,-4.8053414E-1,-5.1640537E-2,1.9242099E-1,1.279969E-1,4.0503267E-2,-5.8646154E-1,8.069351E-2,1.4416562E-2,9.588648E-3,1.6398462E-2,-5.340962E-2,-2.7182842E-2],"categories":[],"categories_nodes":[],"categories_segments":[],"categories_sizes":[],"default_left":[0,0,0,0,0,0,0,0,0,0,0,0,0,0,0,0,0,0,0,0,0,0,0],"id":6,"left_children":[1,3,5,-1,7,-1,9,-1,11,-1,13,15,-1,17,19,-1,21,-1,-1,-1,-1,-1,-1],"loss_changes":[4.2207E3,1.30859375E1,9.872949E1,0E0,3.046875E0,0E0,1.7394295E0,0E0,8.532715E-1,0E0,1.6554909E0,6.695016E0,0E0,3.1240025E0,7.770996E-1,0E0,5.190048E-1,0E0,0E0,0E0,0E0,0E0,0E0],"parents":[2147483647,0,0,1,1,2,2,4,4,6,6,8,8,10,10,11,11,13,13,14,14,16,16],"right_children":[2,4,6,-1,8,-1,10,-1,12,-1,14,16,-1,18,20,-1,22,-1,-1,-1,-1,-1,-1],"split_conditions":[9.99E2,8.4E1,3.6722344E-1,7.536656E-2,2.4048309E-1,2.771153E-2,-1.9418015E-1,1.1841854E-2,4.8607817E-1,-2.3661366E-2,-1.376E-1,1.7287067E0,-5.1640537E-2,1.6362035E0,-1.3358137E-1,4.0503267E-2,1.17E0,8.069351E-2,1.4416562E-2,9.588648E-3,1.6398462E-2,-5.340962E-2,-2.7182842E-2],"split_indices":[6,6,2,0,12,0,7,0,12,0,7,4,0,8,7,0,8,0,0,0,0,0,0],"split_type":[0,0,0,0,0,0,0,0,0,0,0,0,0,0,0,0,0,0,0,0,0,0,0],"sum_hessian":[2.0631557E4,6.636411E3,1.39951455E4,4.0705113E0,6.632341E3,1.1303112E4,2.692033E3,3.2915962E0,6.6290493E3,7.3825617E0,2.6846504E3,5.9989113E1,6.56906E3,5.53944E2,2.1307063E3,4.969709E0,5.50194E1,3.963935E0,5.4998004E2,2.0001007E3,1.306056E2,3.672611E1,1.8293295E1],"tree_param":{"num_deleted":"0","num_feature":"13","num_nodes":"23","size_leaf_vector":"1"}},{"base_weights":[-2.470864E-3,-5.5661485E-2,1.1732279E0,-4.1174486E-2,1.1743925E0,9.087342E-3,9.2076585E-2],"categories":[],"categories_nodes":[],"categories_segments":[],"categories_sizes":[],"default_left":[0,0,0,0,0,0,0],"id":7,"left_children":[1,-1,3,-1,5,-1,-1],"loss_changes":[1.7120914E4,0E0,1.613379E1,0E0,2.2822266E0,0E0,0E0],"parents":[2147483647,0,0,2,2,4,4],"right_children":[2,-1,4,-1,6,-1,-1],"split_conditions":[1.8120338E-3,-5.5661485E-2,8.4E1,-4.1174486E-2,2.4048309E-1,9.087342E-3,9.2076585E-2],"split_indices":[1,0,6,0,12,0,0],"split_type":[0,0,0,0,0,0,0],"sum_hessian":[2.057591E4,1.28449E4,7.7310103E3,4.731867E0,7.7262783E3,3.3713984E0,7.7229067E3],"tree_param":{"num_deleted":"0","num_feature":"13","num_nodes":"7","size_leaf_vector":"1"}},{"base_weights":[1.94557E-3,3.368381E-1,-5.5502664E-2,5.0500584E-1,2.953454E-1,7.896594E-2,5.016389E-1,-2.3034323E-2,2.9567415E-1,-3.8124442E-2,5.031661E-1,2.5367474E-2,2.2866128E-2,3.5797E-2,4.0328827E-2],"categories":[],"categories_nodes":[],"categories_segments":[],"categories_sizes":[],"default_left":[0,0,0,0,0,0,0,0,0,0,0,0,0,0,0],"id":8,"left_children":[1,3,-1,5,7,-1,9,-1,11,-1,13,-1,-1,-1,-1],"loss_changes":[4.922544E3,9.760071E1,0E0,3.4776611E0,2.255371E0,0E0,4.371704E0,0E0,8.2910156E-1,0E0,7.401123E-1,0E0,0E0,0E0,0E0],"parents":[2147483647,0,0,1,1,3,3,4,4,6,6,8,8,10,10],"right_children":[2,4,-1,6,8,-1,10,-1,12,-1,14,-1,-1,-1,-1],"split_conditions":[1.8120338E-3,8.58708E1,-5.5502664E-2,1.0031743E0,8.8E1,7.896594E-2,-1.908E-1,-2.3034323E-2,8.874093E1,-3.8124442E-2,-1.376E-1,2.5367474E-2,2.2866128E-2,3.5797E-2,4.0328827E-2],"split_indices":[1,5,0,9,5,0,7,0,5,0,7,0,0,0,0],"split_type":[0,0,0,0,0,0,0,0,0,0,0,0,0,0,0],"sum_hessian":[2.0699496E4,1.4066557E4,6.63294E3,2.7794783E3,1.1287079E4,1.5860096E1,2.7636182E3,4.9703674E0,1.1282108E4,3.3255525E0,2.7602925E3,1.3655071E3,9.916602E3,5.588694E2,2.201423E3],"tree_param":{"num_deleted":"0","num_feature":"13","num_nodes":"15","size_leaf_vector":"1"}},{"base_weights":[2.5352077E-3,-6.365739E-1,2.921749E-1,7.450838E-2,-6.380986E-1,1.312968E-1,3.3035466E-1,-3.9261627E-1,-5.019681E-2,1.1697166E-1,1.8559352E-1,2.9634097E-1,2.625524E-2,4.833315E-1,-5.340909E-1,-1.7629087E-2,1.186129E-1,4.960633E-2,1.4179401E-2,5.2611474E-2,2.3058813E-2,-0E0,6.8452E-2,1.0748635E-2,-4.6089657E-2,1.20111965E-1,-1.9652681E-2,9.127444E-3,1.3603025E-2],"categories":[],"categories_nodes":[],"categories_segments":[],"categories_sizes":[],"default_left":[0,0,0,0,0,0,0,0,0,0,0,0,0,0,0,0,0,0,0,0,0,0,0,0,0,0,0,0,0],"id":9,"left_children":[1,3,5,-1,7,9,11,13,-1,15,17,19,-1,21,23,-1,25,-1,-1,-1,-1,-1,-1,-1,-1,27,-1,-1,-1],"loss_changes":[3.816222E3,1.5859619E1,8.6857666E1,0E0,2.9309082E0,1.9361649E0,1.378418E0,8.284849E0,0E0,1.1780052E0,6.3463974E-1,4.3302155E-1,0E0,1.9081376E0,2.3709755E0,0E0,1.1465988E0,0E0,0E0,0E0,0E0,0E0,0E0,0E0,0E0,2.4513054E-1,0E0,0E0,0E0],"parents":[2147483647,0,0,1,1,2,2,4,4,5,5,6,6,7,7,9,9,10,10,11,11,13,13,14,14,16,16,25,25],"right_children":[2,4,6,-1,8,10,12,14,-1,16,18,20,-1,22,24,-1,26,-1,-1,-1,-1,-1,-1,-1,-1,28,-1,-1,-1],"split_conditions":[9.99E2,8.4E1,8.58708E1,7.450838E-2,4.8607817E-1,1.0031743E0,8.874093E1,5E0,-5.019681E-2,1E0,-1.908E-1,8.8E1,2.625524E-2,8.758298E1,2.4048309E-1,-1.7629087E-2,1.3855392E0,4.960633E-2,1.4179401E-2,5.2611474E-2,2.3058813E-2,-0E0,6.8452E-2,1.0748635E-2,-4.6089657E-2,-1.3358137E-1,-1.9652681E-2,9.127444E-3,1.3603025E-2],"split_indices":[6,6,5,0,12,8,5,0,0,0,7,5,0,6,12,0,0,0,0,0,0,0,0,0,0,7,0,0,0],"split_type":[0,0,0,0,0,0,0,0,0,0,0,0,0,0,0,0,0,0,0,0,0,0,0,0,0,0,0,0,0],"sum_hessian":[2.0615273E4,6.4281963E3,1.4187077E4,5.3555775E0,6.422841E3,2.724545E3,1.1462532E4,6.4219894E1,6.358621E3,2.1657598E3,5.587851E2,1.3927367E3,1.0069796E4,8.126032E0,5.609386E1,8.235797E0,2.157524E3,3.485854E0,5.5529926E2,5.064907E0,1.3876719E3,3.677534E0,4.448498E0,3.3239698E0,5.2769894E1,2.150813E3,6.7108603E0,2.0249918E3,1.2582127E2],"tree_param":{"num_deleted":"0","num_feature":"13","num_nodes":"29","size_leaf_vector":"1"}},{"base_weights":[-7.505467E-3,-5.437546E-2,1.0775094E0,1.0782096E0,-3.3340704E-2,8.630119E-1,8.4652476E-2,-0E0,7.883999E-2,3.4373563E-2,-4.392421E-2],"categories":[],"categories_nodes":[],"categories_segments":[],"categories_sizes":[],"default_left":[0,0,0,0,0,0,0,0,0,0,0],"id":10,"left_children":[1,-1,3,5,-1,7,-1,9,-1,-1,-1],"loss_changes":[1.5099622E4,0E0,8.986328E0,1.3115234E0,0E0,9.004227E0,0E0,2.9330611E0,0E0,0E0,0E0],"parents":[2147483647,0,0,2,2,3,3,5,5,7,7],"right_children":[2,-1,4,6,-1,8,-1,10,-1,-1,-1],"split_conditions":[1.8120338E-3,-5.437546E-2,2.73624E-1,4.8607817E-1,-3.3340704E-2,2.2595522E0,8.4652476E-2,1.004326E0,7.883999E-2,3.4373563E-2,-4.392421E-2],"split_indices":[1,0,7,12,0,3,0,8,0,0,0],"split_type":[0,0,0,0,0,0,0,0,0,0,0],"sum_hessian":[2.0277756E4,1.242192E4,7.855837E3,7.8527656E3,3.0711644E0,7.223789E1,7.780528E3,1.0371241E1,6.1866653E1,5.9129124E0,4.4583282E0],"tree_param":{"num_deleted":"0","num_feature":"13","num_nodes":"11","size_leaf_vector":"1"}},{"base_weights":[2.9711756E-3,3.1518883E-1,-5.4100677E-2,4.667165E-1,2.7731106E-1,4.1108975E-1,3.767933E-2,3.1312034E-1,2.1338552E-2,5.7219498E-2,4.0516087E-1,-1.0921464E-2,2.4700657E-2,-3.7142634E-2,3.2275643E-2],"categories":[],"categories_nodes":[],"categories_segments":[],"categories_sizes":[],"default_left":[0,0,0,0,0,0,0,0,0,0,0,0,0,0,0],"id":11,"left_children":[1,3,-1,5,7,9,-1,11,-1,-1,13,-1,-1,-1,-1],"loss_changes":[4.4548145E3,8.0946045E1,0E0,1.5646973E0,1.6692505E0,2.4769592E-1,0E0,1.4034424E0,0E0,0E0,3.4800262E0,0E0,0E0,0E0,0E0],"parents":[2147483647,0,0,1,1,3,3,4,4,5,5,7,7,10,10],"right_children":[2,4,-1,6,8,10,-1,12,-1,-1,14,-1,-1,-1,-1],"split_conditions":[1.8120338E-3,8.58708E1,-5.4100677E-2,-1.376E-1,8.874093E1,1.0031743E0,3.767933E-2,8.8E1,2.1338552E-2,5.7219498E-2,-1.908E-1,-1.0921464E-2,2.4700657E-2,-3.7142634E-2,3.2275643E-2],"split_indices":[1,5,0,7,5,9,0,5,0,0,7,0,0,0,0],"split_type":[0,0,0,0,0,0,0,0,0,0,0,0,0,0,0],"sum_hessian":[2.0581973E4,1.4191525E4,6.3904478E3,2.8333782E3,1.1358147E4,5.830504E2,2.250328E3,1.3869496E3,9.971197E3,7.2036643E0,5.7584674E2,4.735584E0,1.382214E3,3.2780619E0,5.7256866E2],"tree_param":{"num_deleted":"0","num_feature":"13","num_nodes":"15","size_leaf_vector":"1"}},{"base_weights":[3.3232104E-3,2.7331787E-1,-6.1948067E-1,2.4088288E-2,1.2872383E-1,5.6261048E-2,-6.210208E-1,-2.441178E-2,1.3028345E-1,-6.2187815E-1,-2.7106905E-3,1.6698234E-1,1.2034989E-1,-4.6180466E-1,-4.883272E-2,6.0371675E-2,-4.128336E-2,7.203756E-2,1.2476605E-2,9.172634E-3,1.3193433E-2,5.387057E-1,-4.9740206E-2,-0E0,7.3064364E-2],"categories":[],"categories_nodes":[],"categories_segments":[],"categories_sizes":[],"default_left":[0,0,0,0,0,0,0,0,0,0,0,0,0,0,0,0,0,0,0,0,0,0,0,0,0],"id":12,"left_children":[1,3,5,-1,7,-1,9,-1,11,13,15,17,19,21,-1,-1,-1,-1,-1,-1,-1,23,-1,-1,-1],"loss_changes":[3.4433906E3,6.999585E1,1.3048828E1,0E0,1.8028145E0,0E0,2.934082E0,0E0,8.1666183E-1,3.251953E-1,4.3305864E0,2.6056175E0,1.7037582E-1,9.119998E0,0E0,0E0,0E0,0E0,0E0,0E0,0E0,1.5307095E0,0E0,0E0,0E0],"parents":[2147483647,0,0,1,1,2,2,4,4,6,6,8,8,9,9,10,10,11,11,12,12,13,13,21,21],"right_children":[2,4,6,-1,8,-1,10,-1,12,14,16,18,20,22,-1,-1,-1,-1,-1,-1,-1,24,-1,-1,-1],"split_conditions":[1.8120338E-3,3.6722344E-1,8.402514E1,2.4088288E-2,-1.9418015E-1,5.6261048E-2,5.1056104E0,-2.441178E-2,-1.513E-1,4.8607817E-1,1.9185723E0,1.7763107E0,-1.3358137E-1,3.0662632E0,-4.883272E-2,6.0371675E-2,-4.128336E-2,7.203756E-2,1.2476605E-2,9.172634E-3,1.3193433E-2,8.758298E1,-4.9740206E-2,-0E0,7.3064364E-2],"split_indices":[1,2,6,0,7,0,11,0,7,12,1,8,7,2,0,0,0,0,0,0,0,6,0,0,0],"split_type":[0,0,0,0,0,0,0,0,0,0,0,0,0,0,0,0,0,0,0,0,0,0,0,0,0],"sum_hessian":[2.0477201E4,1.4285534E4,6.1916665E3,1.1561095E4,2.7244397E3,6.293129E0,6.1853735E3,7.8238554E0,2.716616E3,6.1759146E3,9.459116E0,5.642452E2,2.1523708E3,5.0115593E1,6.125799E3,3.2486777E0,6.210438E0,4.128324E0,5.601169E2,2.026341E3,1.2602979E2,6.66819E0,4.3447403E1,3.2002077E0,3.4679823E0],"tree_param":{"num_deleted":"0","num_feature":"13","num_nodes":"25","size_leaf_vector":"1"}},{"base_weights":[-9.011637E-3,-5.3230703E-2,9.977884E-1,9.9820846E-1,-0E0,7.829485E-2,4.6828064E-1,-4.255782E-2,7.225956E-2],"categories":[],"categories_nodes":[],"categories_segments":[],"categories_sizes":[],"default_left":[0,0,0,0,0,0,0,0,0],"id":13,"left_children":[1,-1,3,5,-1,-1,7,-1,-1],"loss_changes":[1.3429827E4,0E0,3.4614258E0,1.8896484E0,0E0,0E0,6.7470226E0,0E0,0E0],"parents":[2147483647,0,0,2,2,3,3,6,6],"right_children":[2,-1,4,6,-1,-1,8,-1,-1],"split_conditions":[1.8120338E-3,-5.3230703E-2,2.4328476E-1,5.1056104E0,-0E0,7.829485E-2,1.899089E0,-4.255782E-2,7.225956E-2],"split_indices":[1,0,7,11,0,0,1,0,0],"split_type":[0,0,0,0,0,0,0,0,0],"sum_hessian":[1.9903688E4,1.1950247E4,7.953441E3,7.950222E3,3.2190704E0,7.9376035E3,1.2618387E1,3.4840074E0,9.13438E0],"tree_param":{"num_deleted":"0","num_feature":"13","num_nodes":"9","size_leaf_vector":"1"}},{"base_weights":[2.5653995E-3,2.913851E-1,-5.2830853E-2,2.0145558E-2,4.29537E-1,3.462038E-2,2.9854491E-2],"categories":[],"categories_nodes":[],"categories_segments":[],"categories_sizes":[],"default_left":[0,0,0,0,0,0,0],"id":14,"left_children":[1,3,-1,-1,5,-1,-1],"loss_changes":[4.000229E3,6.76322E1,0E0,0E0,1.1043701E0,0E0,0E0],"parents":[2147483647,0,0,1,1,4,4],"right_children":[2,4,-1,-1,6,-1,-1],"split_conditions":[1.8120338E-3,1E0,-5.2830853E-2,2.0145558E-2,1.3855392E0,3.462038E-2,2.9854491E-2],"split_indices":[1,0,0,0,0,0,0],"split_type":[0,0,0,0,0,0,0],"sum_hessian":[2.046945E4,1.4346685E4,6.1227646E3,1.1494482E4,2.852202E3,2.2671616E3,5.850404E2],"tree_param":{"num_deleted":"0","num_feature":"13","num_nodes":"7","size_leaf_vector":"1"}},{"base_weights":[9.205242E-3,2.598333E-1,-6.015248E-1,2.2835914E-2,1.23319104E-1,5.3855885E-2,-6.030883E-1,-3.1818435E-2,1.24935105E-1,1.0584298E-2,-6.0361254E-1,5.9611738E-2,1.23804525E-1,-4.0329304E-1,-4.7444817E-2,1.2778018E-2,1.1341576E-1,3.993779E-1,-4.4735428E-2,8.634837E-3,1.2496823E-2,-0E0,7.102678E-2],"categories":[],"categories_nodes":[],"categories_segments":[],"categories_sizes":[],"default_left":[0,0,0,0,0,0,0,0,0,0,0,0,0,0,0,0,0,0,0,0,0,0,0],"id":15,"left_children":[1,3,5,-1,7,-1,9,-1,11,-1,13,-1,15,17,-1,-1,19,21,-1,-1,-1,-1,-1],"loss_changes":[3.1174817E3,6.1891052E1,1.2217529E1,0E0,2.2060204E0,0E0,2.6123047E0,0E0,1.3848E0,0E0,1.2902832E0,0E0,9.352646E-1,7.718174E0,0E0,0E0,1.5933609E-1,2.0099895E0,0E0,0E0,0E0,0E0,0E0],"parents":[2147483647,0,0,1,1,2,2,4,4,6,6,8,8,10,10,12,12,13,13,16,16,17,17],"right_children":[2,4,6,-1,8,-1,10,-1,12,-1,14,-1,16,18,-1,-1,20,22,-1,-1,-1,-1,-1],"split_conditions":[1.8120338E-3,1E0,8.402514E1,2.2835914E-2,-1.9418015E-1,5.3855885E-2,2.4048309E-1,-3.1818435E-2,-1.908E-1,1.0584298E-2,4.8607817E-1,5.9611738E-2,-1.376E-1,2.2595522E0,-4.7444817E-2,1.2778018E-2,-1.3358137E-1,8.758298E1,-4.4735428E-2,8.634837E-3,1.2496823E-2,-0E0,7.102678E-2],"split_indices":[1,0,6,0,7,0,12,0,7,0,12,0,7,3,0,0,7,6,0,0,0,0,0],"split_type":[0,0,0,0,0,0,0,0,0,0,0,0,0,0,0,0,0,0,0,0,0,0,0],"sum_hessian":[2.0366553E4,1.4441485E4,5.9250674E3,1.1728417E4,2.7130684E3,6.338324E0,5.918729E3,6.6258345E0,2.7064426E3,3.3122919E0,5.9154165E3,3.0085688E0,2.703434E3,5.4608707E1,5.860808E3,5.525684E2,2.1508657E3,8.672276E0,4.593643E1,2.0227828E3,1.2808276E2,5.169745E0,3.5025306E0],"tree_param":{"num_deleted":"0","num_feature":"13","num_nodes":"23","size_leaf_vector":"1"}},{"base_weights":[-1.4889944E-2,-5.2208617E-2,9.33214E-1,-3.9245106E-2,7.321739E-2],"categories":[],"categories_nodes":[],"categories_segments":[],"categories_sizes":[],"default_left":[0,0,0,0,0],"id":16,"left_children":[1,-1,3,-1,-1],"loss_changes":[1.2035513E4,0E0,1.130127E1,0E0,0E0],"parents":[2147483647,0,0,2,2],"right_children":[2,-1,4,-1,-1],"split_conditions":[1.8120338E-3,-5.2208617E-2,8.4E1,-3.9245106E-2,7.321739E-2],"split_indices":[1,0,6,0,0],"split_type":[0,0,0,0,0],"sum_hessian":[1.9491748E4,1.1555487E4,7.9362617E3,4.542584E0,7.931719E3],"tree_param":{"num_deleted":"0","num_feature":"13","num_nodes":"5","size_leaf_vector":"1"}},{"base_weights":[6.894252E-3,2.7714884E-1,-5.1680405E-2,4.1034108E-1,2.4368015E-1,5.8684327E-2,4.0785652E-1,2.7851814E-1,1.8718787E-2,3.7137204E-1,3.267203E-2,-1.5422849E-2,2.2011815E-2,-3.993661E-2,2.9687095E-2],"categories":[],"categories_nodes":[],"categories_segments":[],"categories_sizes":[],"default_left":[0,0,0,0,0,0,0,0,0,0,0,0,0,0,0],"id":17,"left_children":[1,3,-1,5,7,-1,9,11,-1,13,-1,-1,-1,-1,-1],"loss_changes":[3.649732E3,6.384973E1,0E0,1.555542E0,1.6130371E0,0E0,3.8790894E-1,1.6255951E0,0E0,3.906601E0,0E0,0E0,0E0,0E0,0E0],"parents":[2147483647,0,0,1,1,3,3,4,4,6,6,7,7,9,9],"right_children":[2,4,-1,6,8,-1,10,12,-1,14,-1,-1,-1,-1,-1],"split_conditions":[1.8120338E-3,8.58708E1,-5.1680405E-2,1.0031743E0,8.874093E1,5.8684327E-2,8.628156E1,8.8E1,1.8718787E-2,1.7763107E0,3.267203E-2,-1.5422849E-2,2.2011815E-2,-3.993661E-2,2.9687095E-2],"split_indices":[1,5,0,9,5,0,9,5,0,8,0,0,0,0,0],"split_type":[0,0,0,0,0,0,0,0,0,0,0,0,0,0,0],"sum_hessian":[2.0268975E4,1.4420806E4,5.848169E3,2.890901E3,1.1529905E4,1.7744997E1,2.873156E3,1.3907507E3,1.0139154E4,5.8684814E2,2.2863079E3,5.291652E0,1.3854591E3,3.8235528E0,5.830246E2],"tree_param":{"num_deleted":"0","num_feature":"13","num_nodes":"15","size_leaf_vector":"1"}},{"base_weights":[8.251761E-3,2.4235302E-1,-5.886385E-1,2.124876E-2,1.1840595E-1,-5.896746E-1,5.6019183E-2,-1.9898543E-2,1.1963589E-1,-3.0383843E-1,-4.6442553E-2,1.648915E-1,1.0754873E-1,5.9399333E-2,-4.6418697E-1,5.5880092E-2,1.2536165E-2,8.15469E-3,1.2392343E-2,1.2554071E-2,-5.1838595E-1,-4.4555623E-2,-2.0781126E-2],"categories":[],"categories_nodes":[],"categories_segments":[],"categories_sizes":[],"default_left":[0,0,0,0,0,0,0,0,0,0,0,0,0,0,0,0,0,0,0,0,0,0,0],"id":18,"left_children":[1,3,5,-1,7,9,-1,-1,11,13,-1,15,17,-1,19,-1,-1,-1,-1,-1,21,-1,-1],"loss_changes":[2.8188823E3,5.140576E1,7.9348145E0,0E0,1.2015152E0,4.022949E0,0E0,0E0,1.3276253E0,1.0318318E1,0E0,9.5846367E-1,2.2632408E-1,0E0,2.056201E0,0E0,0E0,0E0,0E0,0E0,5.44281E-2,0E0,0E0],"parents":[2147483647,0,0,1,1,2,2,4,4,5,5,8,8,9,9,11,11,12,12,14,14,20,20],"right_children":[2,4,6,-1,8,10,-1,-1,12,14,-1,16,18,-1,20,-1,-1,-1,-1,-1,22,-1,-1],"split_conditions":[1.8120338E-3,1E0,2.73624E-1,2.124876E-2,-1.9418015E-1,4.8607817E-1,5.6019183E-2,-1.9898543E-2,-1.376E-1,1.7287067E0,-4.6442553E-2,-1.908E-1,-1.3358137E-1,5.9399333E-2,2.5E-1,5.5880092E-2,1.2536165E-2,8.15469E-3,1.2392343E-2,1.2554071E-2,5.1056104E0,-4.4555623E-2,-2.0781126E-2],"split_indices":[1,0,7,0,7,12,0,0,7,4,0,7,7,0,12,0,0,0,0,0,2,0,0],"split_type":[0,0,0,0,0,0,0,0,0,0,0,0,0,0,0,0,0,0,0,0,0,0,0],"sum_hessian":[2.017317E4,1.4491118E4,5.682052E3,1.17581875E4,2.73293E3,5.678388E3,3.663787E0,6.996099E0,2.7259338E3,5.9164726E1,5.619223E3,5.6290643E2,2.1630276E3,6.9305177E0,5.223421E1,3.0394802E0,5.59867E2,2.035185E3,1.27842476E2,3.2383926E0,4.8995815E1,3.8278374E1,1.0717444E1],"tree_param":{"num_deleted":"0","num_feature":"13","num_nodes":"23","size_leaf_vector":"1"}},{"base_weights":[-1.4953277E-2,-5.128609E-2,8.7608415E-1,8.7664866E-1,-1.5661119E-2,6.876352E-2,3.8302323E-1,6.394028E-2,-4.3692667E-2],"categories":[],"categories_nodes":[],"categories_segments":[],"categories_sizes":[],"default_left":[0,0,0,0,0,0,0,0,0],"id":19,"left_children":[1,-1,3,5,-1,-1,7,-1,-1],"loss_changes":[1.0838455E4,0E0,5.3374023E0,1.7084961E0,0E0,0E0,5.962612E0,0E0,0E0],"parents":[2147483647,0,0,2,2,3,3,6,6],"right_children":[2,-1,4,6,-1,-1,8,-1,-1],"split_conditions":[1.8120338E-3,-5.128609E-2,2.433E-1,5.1056104E0,-1.5661119E-2,6.876352E-2,1.0698054E0,6.394028E-2,-4.3692667E-2],"split_indices":[10,0,7,11,0,0,8,0,0],"split_type":[0,0,0,0,0,0,0,0,0],"sum_hessian":[1.9022895E4,1.1075911E4,7.946984E3,7.9434727E3,3.511238E0,7.9308267E3,1.2646072E1,9.132812E0,3.5132608E0],"tree_param":{"num_deleted":"0","num_feature":"13","num_nodes":"9","size_leaf_vector":"1"}},{"base_weights":[5.159221E-3,-5.063524E-2,2.5507662E-1,1.7719945E-2,3.7066466E-1,3.3229816E-1,2.9802898E-2,4.9487326E-2,2.5582856E-2],"categories":[],"categories_nodes":[],"categories_segments":[],"categories_sizes":[],"default_left":[0,0,0,0,0,0,0,0,0],"id":20,"left_children":[1,-1,3,-1,5,7,-1,-1,-1],"loss_changes":[3.2746978E3,0E0,4.834381E1,0E0,5.787964E-1,3.6836243E-1,0E0,0E0,0E0],"parents":[2147483647,0,0,2,2,4,4,5,5],"right_children":[2,-1,4,-1,6,8,-1,-1,-1],"split_conditions":[9.99E2,-5.063524E-2,1E0,1.7719945E-2,8.628156E1,1.0031743E0,2.9802898E-2,4.9487326E-2,2.5582856E-2],"split_indices":[6,0,0,0,9,9,0,0,0],"split_type":[0,0,0,0,0,0,0,0,0],"sum_hessian":[2.0121383E4,5.57957E3,1.4541813E4,1.1631277E4,2.9105361E3,5.9858234E2,2.3119539E3,8.1633005E0,5.9041907E2],"tree_param":{"num_deleted":"0","num_feature":"13","num_nodes":"9","size_leaf_vector":"1"}},{"base_weights":[9.978869E-3,-5.7247907E-1,2.274913E-1,5.0047457E-2,-5.740823E-1,2.001885E-2,1.063674E-1,1.1798892E-2,-5.746391E-1,-2.7593404E-2,1.0764611E-1,-3.729735E-1,-4.5168873E-2,1.477132E-1,9.685443E-2,6.839691E-2,-4.9694946E-1,6.5239646E-2,1.1007772E-2,7.3772734E-3,1.0555667E-2,-0E0,-4.21638E-2],"categories":[],"categories_nodes":[],"categories_segments":[],"categories_sizes":[],"default_left":[0,0,0,0,0,0,0,0,0,0,0,0,0,0,0,0,0,0,0,0,0,0,0],"id":21,"left_children":[1,3,5,-1,7,-1,9,-1,11,-1,13,15,-1,17,19,-1,21,-1,-1,-1,-1,-1,-1],"loss_changes":[2.5336067E3,1.0807617E1,4.9029663E1,0E0,2.4924316E0,0E0,1.4971046E0,0E0,1.1195068E0,0E0,1.0333805E0,7.7107673E0,0E0,2.1916418E0,8.7314606E-2,0E0,9.3580914E-1,0E0,0E0,0E0,0E0,0E0,0E0],"parents":[2147483647,0,0,1,1,2,2,4,4,6,6,8,8,10,10,11,11,13,13,14,14,16,16],"right_children":[2,4,6,-1,8,-1,10,-1,12,-1,14,16,-1,18,20,-1,22,-1,-1,-1,-1,-1,-1],"split_conditions":[9.99E2,8.402514E1,3.6722344E-1,5.0047457E-2,2.5E-1,2.001885E-2,-1.9418015E-1,1.1798892E-2,4.8607817E-1,-2.7593404E-2,-1.376E-1,1E0,-4.5168873E-2,1.7763107E0,-1.3358137E-1,6.839691E-2,4E0,6.5239646E-2,1.1007772E-2,7.3772734E-3,1.0555667E-2,-0E0,-4.21638E-2],"split_indices":[6,6,2,0,12,0,7,0,12,0,7,4,0,8,7,0,2,0,0,0,0,0,0],"split_type":[0,0,0,0,0,0,0,0,0,0,0,0,0,0,0,0,0,0,0,0,0,0,0],"sum_hessian":[1.9998102E4,5.436461E3,1.4561641E4,6.323094E0,5.4301377E3,1.1829299E4,2.7323413E3,3.248251E0,5.426889E3,5.806002E0,2.7265354E3,4.8296295E1,5.3785933E3,5.6560767E2,2.1609277E3,3.5425549E0,4.475374E1,4.214385E0,5.6139325E2,2.0315497E3,1.29378E2,3.443156E0,4.1310585E1],"tree_param":{"num_deleted":"0","num_feature":"13","num_nodes":"23","size_leaf_vector":"1"}},{"base_weights":[-2.3284344E-2,-5.045666E-2,8.292149E-1,8.298872E-1,2.9887417E-1,6.5118E-2,3.8711104E-1,-4.3180373E-2,5.9322342E-2,-4.2645894E-2,6.2079176E-2],"categories":[],"categories_nodes":[],"categories_segments":[],"categories_sizes":[],"default_left":[0,0,0,0,0,0,0,0,0,0,0],"id":22,"left_children":[1,-1,3,5,7,-1,9,-1,-1,-1,-1],"loss_changes":[9.786306E3,0E0,1.9633789E0,2.2807617E0,5.1585197E0,0E0,7.639991E0,0E0,0E0,0E0,0E0],"parents":[2147483647,0,0,2,2,3,3,4,4,6,6],"right_children":[2,-1,4,6,8,-1,10,-1,-1,-1,-1],"split_conditions":[1.8120338E-3,-5.045666E-2,5.1056104E0,2.1363127E0,1.899089E0,6.5118E-2,8.0093185E1,-4.3180373E-2,5.9322342E-2,-4.2645894E-2,6.2079176E-2],"split_indices":[1,0,11,1,1,0,5,0,0,0,0],"split_type":[0,0,0,0,0,0,0,0,0,0,0],"sum_hessian":[1.8499887E4,1.0707496E4,7.79239E3,7.7810454E3,1.134433E1,7.762821E3,1.8224653E1,3.496169E0,7.8481607E0,5.0295706E0,1.3195083E1],"tree_param":{"num_deleted":"0","num_feature":"13","num_nodes":"11","size_leaf_vector":"1"}},{"base_weights":[9.416118E-3,-4.9687356E-2,2.4319525E-1,3.5675326E-1,2.1449187E-1,5.9247363E-2,3.5380188E-1,2.570504E-1,1.6347483E-2,-3.603808E-2,3.5500365E-1,-1.5874486E-2,2.0322721E-2,2.525E-2,2.845198E-2],"categories":[],"categories_nodes":[],"categories_segments":[],"categories_sizes":[],"default_left":[0,0,0,0,0,0,0,0,0,0,0,0,0,0,0],"id":23,"left_children":[1,-1,3,5,7,-1,9,11,-1,-1,13,-1,-1,-1,-1],"loss_changes":[3.0019326E3,0E0,4.734851E1,2.6540527E0,2.647766E0,0E0,2.9348145E0,1.5270386E0,0E0,0E0,3.0090332E-1,0E0,0E0,0E0,0E0],"parents":[2147483647,0,0,2,2,3,3,4,4,6,6,7,7,10,10],"right_children":[2,-1,4,6,8,-1,10,12,-1,-1,14,-1,-1,-1,-1],"split_conditions":[9.99E2,-4.9687356E-2,8.58708E1,1.0031743E0,8.874093E1,5.9247363E-2,-1.908E-1,8.8E1,1.6347483E-2,-3.603808E-2,-1.376E-1,-1.5874486E-2,2.0322721E-2,2.525E-2,2.845198E-2],"split_indices":[6,0,5,9,5,0,7,5,0,0,7,0,0,0,0],"split_type":[0,0,0,0,0,0,0,0,0,0,0,0,0,0,0],"sum_hessian":[1.9958992E4,5.318584E3,1.4640408E4,2.9482485E3,1.1692159E4,1.88067E1,2.9294417E3,1.4124634E3,1.0279696E4,3.2050295E0,2.9262368E3,5.3186603E0,1.4071447E3,5.9316516E2,2.3330715E3],"tree_param":{"num_deleted":"0","num_feature":"13","num_nodes":"15","size_leaf_vector":"1"}},{"base_weights":[1.19473785E-2,2.1440877E-1,-5.595906E-1,1.8735342E-2,1.07992865E-1,4.7028422E-2,-5.6120545E-1,-1.395054E-2,1.0888528E-1,-5.6216246E-1,-0E0,5.0396234E-2,8.457702E-3,-4.4156477E-2,-4.1516203E-1,-3.5756037E-2,5.6362778E-2,3.6917764E-1,-4.784692E-2,-1.3254852E-2,6.1052054E-2],"categories":[],"categories_nodes":[],"categories_segments":[],"categories_sizes":[],"default_left":[0,0,0,0,0,0,0,0,0,0,0,0,0,0,0,0,0,0,0,0,0],"id":24,"left_children":[1,3,5,-1,7,-1,9,-1,11,13,15,-1,-1,-1,17,-1,-1,19,-1,-1,-1],"loss_changes":[2.2948901E3,3.8175415E1,9.955933E0,0E0,6.810417E-1,0E0,2.9543457E0,0E0,9.67659E-1,2.0129395E-1,3.3080504E0,0E0,0E0,0E0,7.8227377E0,0E0,0E0,2.579111E0,0E0,0E0,0E0],"parents":[2147483647,0,0,1,1,2,2,4,4,6,6,8,8,9,9,10,10,14,14,17,17],"right_children":[2,4,6,-1,8,-1,10,-1,12,14,16,-1,-1,-1,18,-1,-1,20,-1,-1,-1],"split_conditions":[1.8120338E-3,1E0,8.402514E1,1.8735342E-2,1.0031743E0,4.7028422E-2,5.1056104E0,-1.395054E-2,1.7763107E0,1.242531E0,5.2527747E0,5.0396234E-2,8.457702E-3,-4.4156477E-2,5E0,-3.5756037E-2,5.6362778E-2,1.0031743E0,-4.784692E-2,-1.3254852E-2,6.1052054E-2],"split_indices":[1,0,6,0,9,0,11,0,9,3,9,0,0,0,0,0,0,9,0,0,0],"split_type":[0,0,0,0,0,0,0,0,0,0,0,0,0,0,0,0,0,0,0,0,0],"sum_hessian":[1.9832422E4,1.4645763E4,5.186658E3,1.1888234E4,2.7575283E3,6.336048E0,5.180322E3,6.1758204E0,2.7513525E3,5.1720454E3,8.276354E0,3.0546958E0,2.7482979E3,5.1237754E3,4.827037E1,4.9785824E0,3.297771E0,8.922185E0,3.9348186E1,3.4736087E0,5.4485755E0],"tree_param":{"num_deleted":"0","num_feature":"13","num_nodes":"21","size_leaf_vector":"1"}},{"base_weights":[-2.5488427E-2,7.881774E-1,-4.9703423E-2,-3.538071E-2,7.889126E-1,6.1884884E-2,2.981195E-1,-4.2847626E-2,5.706992E-2],"categories":[],"categories_nodes":[],"categories_segments":[],"categories_sizes":[],"default_left":[0,0,0,0,0,0,0,0,0],"id":25,"left_children":[1,3,-1,-1,5,-1,7,-1,-1],"loss_changes":[8.892584E3,7.466797E0,0E0,0E0,1.6821289E0,0E0,4.986602E0,0E0,0E0],"parents":[2147483647,0,0,1,1,4,4,6,6],"right_children":[2,4,-1,-1,6,-1,8,-1,-1],"split_conditions":[9.99E2,8.4E1,-4.9703423E-2,-3.538071E-2,5.1056104E0,6.1884884E-2,7.242025E0,-4.2847626E-2,5.706992E-2],"split_indices":[6,6,0,0,11,0,0,0,0],"split_type":[0,0,0,0,0,0,0,0,0],"sum_hessian":[1.795452E4,7.6828394E3,1.0271681E4,3.8259985E0,7.679013E3,7.6671987E3,1.1814422E1,3.4816313E0,8.33279E0],"tree_param":{"num_deleted":"0","num_feature":"13","num_nodes":"9","size_leaf_vector":"1"}},{"base_weights":[1.27930725E-2,2.311129E-1,-4.8824757E-2,1.6165698E-2,3.2960927E-1,3.3898854E-1,2.9155093E-1,2.686931E-2,2.119994E-2,-3.4918975E-2,2.3272546E-2],"categories":[],"categories_nodes":[],"categories_segments":[],"categories_sizes":[],"default_left":[0,0,0,0,0,0,0,0,0,0,0],"id":26,"left_children":[1,3,-1,-1,5,7,9,-1,-1,-1,-1],"loss_changes":[2.734539E3,3.5568176E1,0E0,0E0,6.286011E-1,2.0605469E-1,2.4005623E0,0E0,0E0,0E0,0E0],"parents":[2147483647,0,0,1,1,4,4,5,5,6,6],"right_children":[2,4,-1,-1,6,8,10,-1,-1,-1,-1],"split_conditions":[1.8120338E-3,1E0,-4.8824757E-2,1.6165698E-2,1.0031743E0,-1.3358137E-1,-1.908E-1,2.686931E-2,2.119994E-2,-3.4918975E-2,2.3272546E-2],"split_indices":[1,0,0,0,8,7,7,0,0,0,0],"split_type":[0,0,0,0,0,0,0,0,0,0,0],"sum_hessian":[1.9702314E4,1.4666851E4,5.035465E3,1.1717373E4,2.9494778E3,2.349746E3,5.9973175E2,2.2148442E3,1.349017E2,3.1367617E0,5.9659503E2],"tree_param":{"num_deleted":"0","num_feature":"13","num_nodes":"11","size_leaf_vector":"1"}},{"base_weights":[1.1237845E-2,1.9890787E-1,-5.45527E-1,1.04569815E-1,2.2065634E-1,4.679673E-2,-5.4733384E-1,-2.8161842E-2,1.0745253E-1,1.8618447E-1,1.765764E-2,-4.2966817E-2,-1.6786763E-1,1.4082804E-1,9.825079E-2,4.1010227E-2,1.4441437E-2,3.566681E-2,-4.1916564E-2,5.799142E-2,1.0587245E-2,7.394469E-3,1.2141158E-2],"categories":[],"categories_nodes":[],"categories_segments":[],"categories_sizes":[],"default_left":[0,0,0,0,0,0,0,0,0,0,0,0,0,0,0,0,0,0,0,0,0,0,0],"id":27,"left_children":[1,3,5,7,9,-1,11,-1,13,15,-1,-1,17,19,21,-1,-1,-1,-1,-1,-1,-1,-1],"loss_changes":[2.0494504E3,2.9904663E1,1.0435547E1,3.575367E0,1.6431274E0,0E0,1.1525879E0,0E0,6.988945E-1,4.659233E-1,0E0,0E0,3.3862345E0,1.428483E0,3.301468E-1,0E0,0E0,0E0,0E0,0E0,0E0,0E0,0E0],"parents":[2147483647,0,0,1,1,2,2,3,3,4,4,6,6,8,8,9,9,12,12,13,13,14,14],"right_children":[2,4,6,8,10,-1,12,-1,14,16,-1,-1,18,20,22,-1,-1,-1,-1,-1,-1,-1,-1],"split_conditions":[1.8120338E-3,8.58708E1,8.402514E1,1.0031743E0,8.874093E1,4.679673E-2,5.1056104E0,-2.8161842E-2,-1.376E-1,8.8E1,1.765764E-2,-4.2966817E-2,6.0193214E0,1.6362035E0,-1.3358137E-1,4.1010227E-2,1.4441437E-2,3.566681E-2,-4.1916564E-2,5.799142E-2,1.0587245E-2,7.394469E-3,1.2141158E-2],"split_indices":[1,5,6,9,5,0,2,0,7,5,0,0,2,8,7,0,0,0,0,0,0,0,0],"split_type":[0,0,0,0,0,0,0,0,0,0,0,0,0,0,0,0,0,0,0,0,0,0,0],"sum_hessian":[1.961444E4,1.4670808E4,4.943632E3,2.7541277E3,1.1916681E4,6.9177327E0,4.9367144E3,1.5232922E1,2.7388948E3,1.4292119E3,1.0487469E4,4.9237046E3,1.3009638E1,5.7657434E2,2.1623203E3,5.317125E0,1.4238948E3,4.1965327E0,8.813105E0,3.6218252E0,5.729525E2,2.0338481E3,1.2847221E2],"tree_param":{"num_deleted":"0","num_feature":"13","num_nodes":"23","size_leaf_vector":"1"}},{"base_weights":[-3.2330085E-2,-4.90173E-2,7.5441366E-1,5.927539E-2,5.9084105E-1,-3.938552E-2,6.91389E-1,6.2295668E-2,4.296708E-1,-3.8969666E-3,5.2198076E-1,5.6719888E-2,2.6626518E-2],"categories":[],"categories_nodes":[],"categories_segments":[],"categories_sizes":[],"default_left":[0,0,0,0,0,0,0,0,0,0,0,0,0],"id":28,"left_children":[1,-1,3,-1,5,-1,7,-1,9,-1,11,-1,-1],"loss_changes":[8.0634346E3,0E0,1.1674805E0,0E0,1.0311398E1,0E0,1.3204155E0,0E0,1.4697251E0,0E0,8.856678E-2,0E0,0E0],"parents":[2147483647,0,0,2,2,4,4,6,6,8,8,10,10],"right_children":[2,-1,4,-1,6,-1,8,-1,10,-1,12,-1,-1],"split_conditions":[1.8120338E-3,-4.90173E-2,2.242531E0,5.927539E-2,1E0,-3.938552E-2,1.17E0,6.2295668E-2,2.2936332E0,-3.8969666E-3,7.6943666E-1,5.6719888E-2,2.6626518E-2],"split_indices":[1,0,0,0,4,0,8,0,3,0,1,0,0],"split_type":[0,0,0,0,0,0,0,0,0,0,0,0,0],"sum_hessian":[1.728024E4,9.853402E3,7.426838E3,7.337238E3,8.959993E1,6.821592E0,8.2778336E1,5.668375E1,2.6094585E1,3.308112E0,2.2786474E1,8.280643E0,1.4505831E1],"tree_param":{"num_deleted":"0","num_feature":"13","num_nodes":"13","size_leaf_vector":"1"}},{"base_weights":[1.0312676E-2,2.1244745E-1,-4.8039928E-2,1.4821077E-2,3.0509505E-1,2.7476808E-1,2.449542E-2,4.231865E-2,2.6935408E-1,-3.387886E-2,2.1513255E-2],"categories":[],"categories_nodes":[],"categories_segments":[],"categories_sizes":[],"default_left":[0,0,0,0,0,0,0,0,0,0,0],"id":29,"left_children":[1,3,-1,-1,5,7,-1,-1,9,-1,-1],"loss_changes":[2.4654246E3,3.1656555E1,0E0,0E0,2.7874756E-1,3.0989456E-1,0E0,0E0,2.1527023E0,0E0,0E0],"parents":[2147483647,0,0,1,1,4,4,5,5,8,8],"right_children":[2,4,-1,-1,6,8,-1,-1,10,-1,-1],"split_conditions":[1.8120338E-3,1E0,-4.8039928E-2,1.4821077E-2,-1.376E-1,1.0031743E0,2.449542E-2,4.231865E-2,-1.908E-1,-3.387886E-2,2.1513255E-2],"split_indices":[10,0,0,0,7,9,0,0,7,0,0],"split_type":[0,0,0,0,0,0,0,0,0,0,0],"sum_hessian":[1.9570475E4,1.477869E4,4.791785E3,1.1810349E4,2.9683418E3,6.0474146E2,2.3636003E3,8.52145E0,5.9622E2,3.0726516E0,5.9314734E2],"tree_param":{"num_deleted":"0","num_feature":"13","num_nodes":"11","size_leaf_vector":"1"}},{"base_weights":[2.0017609E-2,-5.3131723E-1,1.952875E-1,4.46247E-2,-5.331431E-1,1.0856718E-1,2.1521041E-1,-5.3438294E-1,1.2610063E-1,-2.386011E-2,1.10297695E-1,1.8998967E-1,1.7134007E-2,-3.700265E-1,-4.198776E-2,6.846022E-2,-3.2938607E-2,-1.7542683E-2,1.1139384E-1,3.9126612E-2,1.4750455E-2,6.9646336E-2,-5.3599083E-1,4.5198437E-2,1.1051759E-1,-4.596181E-2,-1.4013885E-2,1.023532E-2,8.233291E-3],"categories":[],"categories_nodes":[],"categories_segments":[],"categories_sizes":[],"default_left":[0,0,0,0,0,0,0,0,0,0,0,0,0,0,0,0,0,0,0,0,0,0,0,0,0,0,0,0,0],"id":30,"left_children":[1,3,5,-1,7,9,11,13,15,-1,17,19,-1,21,-1,-1,-1,-1,23,-1,-1,-1,25,-1,27,-1,-1,-1,-1],"loss_changes":[1.8814441E3,9.655151E0,2.5331787E1,0E0,4.1104736E0,1.8969193E0,7.7111816E-1,3.6450195E-1,4.048247E0,0E0,9.6746063E-1,3.525772E-1,0E0,9.211905E0,0E0,0E0,0E0,0E0,6.9311905E-1,0E0,0E0,0E0,2.0048332E-1,0E0,1.6126251E-1,0E0,0E0,0E0,0E0],"parents":[2147483647,0,0,1,1,2,2,4,4,5,5,6,6,7,7,8,8,10,10,11,11,13,13,18,18,22,22,24,24],"right_children":[2,4,6,-1,8,10,12,14,16,-1,18,20,-1,22,-1,-1,-1,-1,24,-1,-1,-1,26,-1,28,-1,-1,-1,-1],"split_conditions":[9.99E2,8.402514E1,8.58708E1,4.46247E-2,5.1056104E0,5.5735525E-2,8.874093E1,4.8607817E-1,8.0093185E1,-2.386011E-2,-1.9418015E-1,8.8E1,1.7134007E-2,1E0,-4.198776E-2,6.846022E-2,-3.2938607E-2,-1.7542683E-2,-1.908E-1,3.9126612E-2,1.4750455E-2,6.9646336E-2,1.1917734E0,4.5198437E-2,-1.376E-1,-4.596181E-2,-1.4013885E-2,1.023532E-2,8.233291E-3],"split_indices":[6,6,5,0,11,4,5,12,5,0,7,5,0,4,0,0,0,0,7,0,0,0,8,0,7,0,0,0,0],"split_type":[0,0,0,0,0,0,0,0,0,0,0,0,0,0,0,0,0,0,0,0,0,0,0,0,0,0,0,0,0],"sum_hessian":[1.9470414E4,4.695467E3,1.4774947E4,6.8746037E0,4.6885923E3,2.7663381E3,1.2008609E4,4.6807725E3,7.8194857E0,9.6448145E0,2.7566934E3,1.4496483E3,1.0558961E4,4.246749E1,4.638305E3,3.530514E0,4.288972E0,6.8521004E0,2.749841E3,5.341731E0,1.4443066E3,4.1645474E0,3.8302944E1,3.0224147E0,2.7468188E3,3.1774479E1,6.528465E0,5.6305273E2,2.183766E3],"tree_param":{"num_deleted":"0","num_feature":"13","num_nodes":"29","size_leaf_vector":"1"}},{"base_weights":[-3.762428E-2,-4.839462E-2,7.211556E-1,7.215582E-1,-8.92938E-5,5.6595024E-2,3.2473296E-1,-2.510601E-2,5.2478842E-2],"categories":[],"categories_nodes":[],"categories_segments":[],"categories_sizes":[],"default_left":[0,0,0,0,0,0,0,0,0],"id":31,"left_children":[1,-1,3,5,-1,-1,7,-1,-1],"loss_changes":[7.3891855E3,0E0,2.5126953E0,7.3217773E-1,0E0,0E0,3.088295E0,0E0,0E0],"parents":[2147483647,0,0,2,2,3,3,6,6],"right_children":[2,-1,4,6,-1,-1,8,-1,-1],"split_conditions":[1.8120338E-3,-4.839462E-2,2.428445E-1,5.1056104E0,-8.92938E-5,5.6595024E-2,8.306054E0,-2.510601E-2,5.2478842E-2],"split_indices":[1,0,7,11,0,0,0,0,0],"split_type":[0,0,0,0,0,0,0,0,0],"sum_hessian":[1.6793705E4,9.519902E3,7.273803E3,7.270514E3,3.289385E0,7.259029E3,1.1485005E1,3.4637187E0,8.021287E0],"tree_param":{"num_deleted":"0","num_feature":"13","num_nodes":"9","size_leaf_vector":"1"}},{"base_weights":[1.5760176E-2,-4.732335E-2,2.0520817E-1,2.9707113E-1,1.8208006E-1,5.100272E-2,2.9458404E-1,-2.3795748E-2,1.8235312E-1,-3.28627E-2,2.3169482E-2,1.68414E-2,1.3934914E-2],"categories":[],"categories_nodes":[],"categories_segments":[],"categories_sizes":[],"default_left":[0,0,0,0,0,0,0,0,0,0,0,0,0],"id":32,"left_children":[1,-1,3,5,7,-1,9,-1,11,-1,-1,-1,-1],"loss_changes":[2.26441E3,0E0,3.108905E1,1.938385E0,1.5429993E0,0E0,2.1900482E0,0E0,1.5057068E0,0E0,0E0,0E0,0E0],"parents":[2147483647,0,0,2,2,3,3,4,4,6,6,8,8],"right_children":[2,-1,4,6,8,-1,10,-1,12,-1,-1,-1,-1],"split_conditions":[9.99E2,-4.732335E-2,8.58708E1,1.0031743E0,8.8E1,5.100272E-2,-1.908E-1,-2.3795748E-2,8.874093E1,-3.28627E-2,2.3169482E-2,1.68414E-2,1.3934914E-2],"split_indices":[6,0,5,9,5,0,7,0,5,0,0,0,0],"split_type":[0,0,0,0,0,0,0,0,0,0,0,0,0],"sum_hessian":[1.929304E4,4.5169355E3,1.4776104E4,2.9652612E3,1.1810843E4,1.7739262E1,2.947522E3,5.0157375E0,1.1805827E4,3.0064342E0,2.9445156E3,1.4333036E3,1.0372523E4],"tree_param":{"num_deleted":"0","num_feature":"13","num_nodes":"13","size_leaf_vector":"1"}},{"base_weights":[1.9561104E-2,1.8243298E-1,-5.196085E-1,1.5791371E-2,9.850936E-2,4.0341295E-2,-5.212615E-1,8.9556016E-2,1.0325084E-2,-5.225027E-1,6.3302174E-2,7.0982887E-3,-1.2382042E-2,-3.6964393E-1,-4.1043766E-2,6.4371824E-2,-3.402607E-2,6.414832E-2,-5.205189E-1,-0E0,-4.5305606E-2],"categories":[],"categories_nodes":[],"categories_segments":[],"categories_sizes":[],"default_left":[0,0,0,0,0,0,0,0,0,0,0,0,0,0,0,0,0,0,0,0,0],"id":33,"left_children":[1,3,5,-1,7,-1,9,11,-1,13,15,-1,-1,17,-1,-1,-1,-1,19,-1,-1],"loss_changes":[1.6948054E3,2.3511536E1,7.86792E0,0E0,6.8652725E-1,0E0,3.5229492E0,5.1838875E-1,0E0,1.4758301E-1,3.9719243E0,0E0,0E0,7.30851E0,0E0,0E0,0E0,0E0,8.473854E-1,0E0,0E0],"parents":[2147483647,0,0,1,1,2,2,4,4,6,6,7,7,9,9,10,10,13,13,18,18],"right_children":[2,4,6,-1,8,-1,10,12,-1,14,16,-1,-1,18,-1,-1,-1,-1,20,-1,-1],"split_conditions":[1.8120338E-3,3.6722344E-1,8.402514E1,1.5791371E-2,1.0031743E0,4.0341295E-2,5.1056104E0,1.0780594E0,1.0325084E-2,4.7684425E-1,1.899089E0,7.0982887E-3,-1.2382042E-2,1E0,-4.1043766E-2,6.4371824E-2,-3.402607E-2,6.414832E-2,4E0,-0E0,-4.5305606E-2],"split_indices":[1,2,6,0,8,0,11,2,0,12,1,0,0,4,0,0,0,0,2,0,0],"split_type":[0,0,0,0,0,0,0,0,0,0,0,0,0,0,0,0,0,0,0,0,0],"sum_hessian":[1.9300092E4,1.4823699E4,4.4763916E3,1.2075871E4,2.747828E3,6.2240868E0,4.4701675E3,2.179865E3,5.679629E2,4.4617188E3,8.448701E0,2.17373E3,6.1351423E0,3.904964E1,4.4226694E3,3.5847864E0,4.863914E0,3.5992608E0,3.5450382E1,4.3157215E0,3.1134659E1],"tree_param":{"num_deleted":"0","num_feature":"13","num_nodes":"21","size_leaf_vector":"1"}},{"base_weights":[-4.1875377E-2,-4.7819853E-2,6.9457906E-1,-3.5070885E-2,6.9536734E-1,5.393484E-1,5.4611914E-2,-4.903007E-2,4.9332574E-2],"categories":[],"categories_nodes":[],"categories_segments":[],"categories_sizes":[],"default_left":[0,0,0,0,0,0,0,0,0],"id":34,"left_children":[1,-1,3,-1,5,7,-1,-1,-1],"loss_changes":[6.762778E3,0E0,6.715576E0,0E0,5.686035E-1,7.631239E0,0E0,0E0,0E0],"parents":[2147483647,0,0,2,2,4,4,5,5],"right_children":[2,-1,4,-1,6,8,-1,-1,-1],"split_conditions":[1.8120338E-3,-4.7819853E-2,8.4E1,-3.5070885E-2,4.8607817E-1,1E0,5.4611914E-2,-4.903007E-2,4.9332574E-2],"split_indices":[1,0,6,0,12,4,0,0,0],"split_type":[0,0,0,0,0,0,0,0,0],"sum_hessian":[1.6158747E4,9.121542E3,7.037205E3,4.066628E0,7.0331387E3,6.900039E1,6.964138E3,4.1798224E0,6.4820564E1],"tree_param":{"num_deleted":"0","num_feature":"13","num_nodes":"9","size_leaf_vector":"1"}},{"base_weights":[1.6259793E-2,1.9208963E-1,-4.6670925E-2,2.7554977E-1,1.710338E-1,4.4416428E-2,2.1489987E-2,-1.1010929E-2,1.7121294E-1,1.5344845E-2,1.3149853E-2],"categories":[],"categories_nodes":[],"categories_segments":[],"categories_sizes":[],"default_left":[0,0,0,0,0,0,0,0,0,0,0],"id":35,"left_children":[1,3,-1,5,7,-1,-1,-1,9,-1,-1],"loss_changes":[2.0677588E3,2.596228E1,0E0,6.10199E-1,7.0166016E-1,0E0,0E0,0E0,7.8182983E-1,0E0,0E0],"parents":[2147483647,0,0,1,1,3,3,4,4,8,8],"right_children":[2,4,-1,6,8,-1,-1,-1,10,-1,-1],"split_conditions":[1.8120338E-3,8.58708E1,-4.6670925E-2,1E0,8.8E1,4.4416428E-2,2.1489987E-2,-1.1010929E-2,8.874093E1,1.5344845E-2,1.3149853E-2],"split_indices":[1,5,0,0,5,0,0,0,5,0,0],"split_type":[0,0,0,0,0,0,0,0,0,0,0],"sum_hessian":[1.9225027E4,1.4933912E4,4.2911157E3,3.0014197E3,1.1932492E4,1.0632609E1,2.990787E3,4.7391233E0,1.1927753E4,1.4395887E3,1.0488164E4],"tree_param":{"num_deleted":"0","num_feature":"13","num_nodes":"11","size_leaf_vector":"1"}},{"base_weights":[2.0950753E-2,1.7251658E-1,-5.082192E-1,9.3990445E-2,1.9054957E-1,4.145119E-2,-5.1010036E-1,-2.2227377E-2,9.5562056E-2,1.6315462E-1,1.5225835E-2,-5.1124454E-1,5.6628164E-2,7.140314E-3,8.719797E-3,4.2207826E-2,1.263435E-2,-4.0170576E-2,4.720261E-2,6.2569804E-2,-3.3878136E-2],"categories":[],"categories_nodes":[],"categories_segments":[],"categories_sizes":[],"default_left":[0,0,0,0,0,0,0,0,0,0,0,0,0,0,0,0,0,0,0,0,0],"id":36,"left_children":[1,3,5,7,9,-1,11,-1,13,15,-1,17,-1,-1,-1,-1,-1,-1,19,-1,-1],"loss_changes":[1.5303329E3,2.0836182E1,8.488037E0,1.5659313E0,1.0042725E0,0E0,6.1534424E0,0E0,7.441139E-2,6.204529E-1,0E0,3.2982178E0,0E0,0E0,0E0,0E0,0E0,0E0,3.8568995E0,0E0,0E0],"parents":[2147483647,0,0,1,1,2,2,3,3,4,4,6,6,8,8,9,9,11,11,18,18],"right_children":[2,4,6,8,10,-1,12,-1,14,16,-1,18,-1,-1,-1,-1,-1,-1,20,-1,-1],"split_conditions":[1.8120338E-3,8.58708E1,8.402514E1,1E0,8.874093E1,4.145119E-2,8.58708E1,-2.2227377E-2,1.3855392E0,8.8E1,1.5225835E-2,5.1056104E0,5.6628164E-2,7.140314E-3,8.719797E-3,4.2207826E-2,1.263435E-2,-4.0170576E-2,7.242025E0,6.2569804E-2,-3.3878136E-2],"split_indices":[1,5,6,0,5,0,5,0,0,5,0,11,0,0,0,0,0,0,0,0,0],"split_type":[0,0,0,0,0,0,0,0,0,0,0,0,0,0,0,0,0,0,0,0,0],"sum_hessian":[1.9081156E4,1.4833954E4,4.247201E3,2.776938E3,1.2057016E4,6.7638803E0,4.2404375E3,9.476744E0,2.7674614E3,1.4604174E3,1.0596599E4,4.237408E3,3.0292494E0,2.1862537E3,5.812078E2,5.006087E0,1.4554113E3,4.2287876E3,8.620628E0,3.6039305E0,5.0166984E0],"tree_param":{"num_deleted":"0","num_feature":"13","num_nodes":"21","size_leaf_vector":"1"}},{"base_weights":[-4.6893533E-2,-5.948066E-1,6.7270815E-1,-6.033807E-1,5.96732E-1,5.274949E-2,-0E0,-4.7308307E-2,-9.168504E-3,2.6292463E-3,6.2460965E-1,2.832933E-3,5.0811443E-2],"categories":[],"categories_nodes":[],"categories_segments":[],"categories_sizes":[],"default_left":[0,0,0,0,0,0,0,0,0,0,0,0,0],"id":37,"left_children":[1,3,5,7,9,-1,-1,-1,-1,-1,11,-1,-1],"loss_changes":[6.134755E3,9.0535645E1,1.2509766E0,4.3847656E-1,6.109657E-1,0E0,0E0,0E0,0E0,0E0,4.2803764E-1,0E0,0E0],"parents":[2147483647,0,0,1,1,2,2,3,3,4,4,10,10],"right_children":[2,4,6,8,10,-1,-1,-1,-1,-1,12,-1,-1],"split_conditions":[1.810799E-2,2.0750701E0,2.4288306E-1,2.500371E0,5E0,5.274949E-2,-0E0,-4.7308307E-2,-9.168504E-3,2.6292463E-3,2.2973023E-1,2.832933E-3,5.0811443E-2],"split_indices":[7,3,7,0,0,0,0,0,0,0,12,0,0],"split_type":[0,0,0,0,0,0,0,0,0,0,0,0,0],"sum_hessian":[1.5557955E4,8.833174E3,6.7247803E3,8.770908E3,6.226574E1,6.721483E3,3.2974567E0,8.765826E3,5.082213E0,3.9498558E0,5.8315884E1,3.2315655E0,5.508432E1],"tree_param":{"num_deleted":"0","num_feature":"13","num_nodes":"13","size_leaf_vector":"1"}},{"base_weights":[1.6052624E-2,1.7989662E-1,-4.6074186E-2,1.2613761E-2,2.553299E-1,2.0222833E-2,1.5425857E-2],"categories":[],"categories_nodes":[],"categories_segments":[],"categories_sizes":[],"default_left":[0,0,0,0,0,0,0],"id":38,"left_children":[1,3,-1,-1,5,-1,-1],"loss_changes":[1.8813326E3,2.1135223E1,0E0,0E0,1.8093872E-1,0E0,0E0],"parents":[2147483647,0,0,1,1,4,4],"right_children":[2,4,-1,-1,6,-1,-1],"split_conditions":[1.8120338E-3,1E0,-4.6074186E-2,1.2613761E-2,8.8491974E1,2.0222833E-2,1.5425857E-2],"split_indices":[1,0,0,0,9,0,0],"split_type":[0,0,0,0,0,0,0],"sum_hessian":[1.901462E4,1.4957845E4,4.0567744E3,1.1960893E4,2.9969526E3,2.8538896E3,1.4306287E2],"tree_param":{"num_deleted":"0","num_feature":"13","num_nodes":"7","size_leaf_vector":"1"}},{"base_weights":[2.3976784E-2,1.6402382E-1,-5.005901E-1,8.93172E-2,1.814721E-1,4.0281788E-2,-5.0169796E-1,9.639482E-2,-3.925121E-1,5.4106247E-2,1.8122794E-1,-3.9579134E-2,-3.247938E-2,-2.4623059E-2,9.930535E-2,-4.3080974E-2,-1.5703973E-1,1.2022611E-2,1.449689E-2,5.598364E-2,9.7569674E-2,-3.886538E-2,1.5287777E-2,7.4855434E-3,1.0474615E-2,6.6930614E-2,-2.672523E-2],"categories":[],"categories_nodes":[],"categories_segments":[],"categories_sizes":[],"default_left":[0,0,0,0,0,0,0,0,0,0,0,0,0,0,0,0,0,0,0,0,0,0,0,0,0,0,0],"id":39,"left_children":[1,3,5,7,9,-1,11,13,15,-1,17,-1,-1,-1,19,-1,21,-1,-1,-1,23,-1,25,-1,-1,-1,-1],"loss_changes":[1.3907758E3,1.9318909E1,4.6782837E0,9.541637E0,9.266052E-1,0E0,4.7058105E-1,3.249197E0,1.0270734E0,0E0,1.0491638E0,0E0,0E0,0E0,2.465763E0,0E0,1.3535273E0,0E0,0E0,0E0,7.038307E-2,0E0,4.0876074E0,0E0,0E0,0E0,0E0],"parents":[2147483647,0,0,1,1,2,2,3,3,4,4,6,6,7,7,8,8,10,10,14,14,16,16,20,20,22,22],"right_children":[2,4,6,8,10,-1,12,14,16,-1,18,-1,-1,-1,20,-1,22,-1,-1,-1,24,-1,26,-1,-1,-1,-1],"split_conditions":[1.810799E-2,8.58708E1,6.237957E1,2.2595522E0,8.7E1,4.0281788E-2,9E1,1.0031743E0,1.17E0,5.4106247E-2,8.874093E1,-3.9579134E-2,-3.247938E-2,-2.4623059E-2,8.46875E1,-4.3080974E-2,6.770775E1,1.2022611E-2,1.449689E-2,5.598364E-2,-1.3358137E-1,-3.886538E-2,-1.6076243E-1,7.4855434E-3,1.0474615E-2,6.6930614E-2,-2.672523E-2],"split_indices":[7,5,5,3,5,0,9,9,8,0,5,0,0,0,5,0,5,0,0,0,7,0,7,0,0,0,0],"split_type":[0,0,0,0,0,0,0,0,0,0,0,0,0,0,0,0,0,0,0,0,0,0,0,0,0,0,0],"sum_hessian":[1.8932254E4,1.4944114E4,3.9881404E3,2.836348E3,1.2107766E4,3.4136777E0,3.9847268E3,2.7970303E3,3.9317608E1,3.6660504E0,1.21041E4,3.8308591E3,1.5386774E2,1.7769163E1,2.779261E3,2.1552818E1,1.7764791E1,1.4525013E3,1.0651599E4,6.026273E0,2.7732349E3,6.5721827E0,1.1192608E1,2.6402551E3,1.3297975E2,3.4726586E0,7.7199497E0],"tree_param":{"num_deleted":"0","num_feature":"13","num_nodes":"27","size_leaf_vector":"1"}},{"base_weights":[-5.352444E-2,-4.6810735E-2,6.4762205E-1,-3.215376E-2,6.4832187E-1,5.086579E-2,1.8910927E-1,-4.080976E-2,4.7041796E-2],"categories":[],"categories_nodes":[],"categories_segments":[],"categories_sizes":[],"default_left":[0,0,0,0,0,0,0,0,0],"id":40,"left_children":[1,-1,3,-1,5,-1,7,-1,-1],"loss_changes":[5.69598E3,0E0,5.169922E0,0E0,1.4072266E0,0E0,3.674214E0,0E0,0E0],"parents":[2147483647,0,0,2,2,4,4,6,6],"right_children":[2,-1,4,-1,6,-1,8,-1,-1],"split_conditions":[1.8120338E-3,-4.6810735E-2,8.4E1,-3.215376E-2,5.1056104E0,5.086579E-2,7.242025E0,-4.080976E-2,4.7041796E-2],"split_indices":[1,0,6,0,11,0,0,0,0],"split_type":[0,0,0,0,0,0,0,0,0],"sum_hessian":[1.4939755E4,8.415053E3,6.524702E3,3.49079E0,6.5212114E3,6.5103867E3,1.0824428E1,3.402076E0,7.422352E0],"tree_param":{"num_deleted":"0","num_feature":"13","num_nodes":"9","size_leaf_vector":"1"}},{"base_weights":[1.806938E-2,1.717587E-1,-4.5529056E-2,2.3561288E-1,1.5561149E-1,4.0861934E-2,2.3356265E-1,-1.4784691E-2,1.5582085E-1,-3.2921553E-2,2.3451096E-1,1.4191648E-2,1.1934306E-2,2.3682638E-1,1.4297829E-2,1.664461E-2,1.905439E-2],"categories":[],"categories_nodes":[],"categories_segments":[],"categories_sizes":[],"default_left":[0,0,0,0,0,0,0,0,0,0,0,0,0,0,0,0,0],"id":41,"left_children":[1,3,-1,5,7,-1,9,-1,11,-1,13,-1,-1,15,-1,-1,-1],"loss_changes":[1.7335631E3,1.5210785E1,0E0,1.2564545E0,8.678589E-1,0E0,1.8334808E0,0E0,8.690491E-1,0E0,9.664917E-2,0E0,0E0,1.4761353E-1,0E0,0E0,0E0],"parents":[2147483647,0,0,1,1,3,3,4,4,6,6,8,8,10,10,13,13],"right_children":[2,4,-1,6,8,-1,10,-1,12,-1,14,-1,-1,16,-1,-1,-1],"split_conditions":[1.8120338E-3,8.58708E1,-4.5529056E-2,1.0031743E0,8.8E1,4.0861934E-2,-1.908E-1,-1.4784691E-2,8.874093E1,-3.2921553E-2,-1.3358137E-1,1.4191648E-2,1.1934306E-2,-1.376E-1,1.4297829E-2,1.664461E-2,1.905439E-2],"split_indices":[1,5,0,9,5,0,7,0,5,0,7,0,0,7,0,0,0],"split_type":[0,0,0,0,0,0,0,0,0,0,0,0,0,0,0,0,0],"sum_hessian":[1.8832959E4,1.4988477E4,3.8444836E3,3.0161963E3,1.197228E4,1.8164639E1,2.9980315E3,5.2507653E0,1.1967029E4,3.001879E0,2.9950298E3,1.4533816E3,1.0513647E4,2.8547893E3,1.4024028E2,6.067339E2,2.2480554E3],"tree_param":{"num_deleted":"0","num_feature":"13","num_nodes":"17","size_leaf_vector":"1"}},{"base_weights":[2.609605E-2,1.571832E-1,-4.854255E-1,9.02872E-2,1.7249775E-1,-4.866406E-1,5.372324E-2,-1.9083692E-2,9.234405E-2,1.4664611E-1,1.3790024E-2,-1.0511495E-1,-4.8935166E-1,1.18715994E-1,6.670814E-3,3.1601656E-2,1.1372248E-2,-3.0840448E-1,5.19838E-2,-4.9215782E-1,-3.2184348E-2,5.3715795E-2,8.833796E-3,-4.2606425E-2,5.676954E-2,-3.8593598E-2,-2.3228333E-3],"categories":[],"categories_nodes":[],"categories_segments":[],"categories_sizes":[],"default_left":[0,0,0,0,0,0,0,0,0,0,0,0,0,0,0,0,0,0,0,0,0,0,0,0,0,0,0],"id":42,"left_children":[1,3,5,7,9,11,-1,-1,13,15,-1,17,19,21,-1,-1,-1,23,-1,25,-1,-1,-1,-1,-1,-1,-1],"loss_changes":[1.2577363E3,1.5142395E1,5.5943604E0,1.8498611E0,8.833618E-1,3.586609E0,0E0,0E0,4.0927696E-1,2.3002243E-1,0E0,4.556969E0,1.8310547E-1,1.4715328E0,0E0,0E0,0E0,6.1225944E0,0E0,1.1291504E-1,0E0,0E0,0E0,0E0,0E0,0E0,0E0],"parents":[2147483647,0,0,1,1,2,2,3,3,4,4,5,5,8,8,9,9,11,11,12,12,13,13,17,17,19,19],"right_children":[2,4,6,8,10,12,-1,-1,14,16,-1,18,20,22,-1,-1,-1,24,-1,26,-1,-1,-1,-1,-1,-1,-1],"split_conditions":[1.8120338E-3,8.58708E1,8.58708E1,1.0031743E0,8.874093E1,8.0093185E1,5.372324E-2,-1.9083692E-2,-1.376E-1,8.8E1,1.3790024E-2,2.0695841E0,9E1,1.6362035E0,6.670814E-3,3.1601656E-2,1.1372248E-2,5.1056104E0,5.19838E-2,3.472789E0,-3.2184348E-2,5.3715795E-2,8.833796E-3,-4.2606425E-2,5.676954E-2,-3.8593598E-2,-2.3228333E-3],"split_indices":[1,5,5,9,5,5,0,0,7,5,0,1,9,8,0,0,0,11,0,4,0,0,0,0,0,0,0],"split_type":[0,0,0,0,0,0,0,0,0,0,0,0,0,0,0,0,0,0,0,0,0,0,0,0,0,0,0],"sum_hessian":[1.8758121E4,1.4932898E4,3.825222E3,2.789472E3,1.2143427E4,3.8221824E3,3.0395727E0,1.4883043E1,2.7745889E3,1.4504313E3,1.0692996E4,2.8621157E1,3.7935613E3,5.782477E2,2.196341E3,5.370549E0,1.4450608E3,2.3569689E1,5.051468E0,3.6522744E3,1.4128671E2,4.1790743E0,5.740686E2,1.9933311E1,3.636376E0,3.6491099E3,3.1646178E0],"tree_param":{"num_deleted":"0","num_feature":"13","num_nodes":"27","size_leaf_vector":"1"}},{"base_weights":[-6.031675E-2,-4.6363868E-2,6.272171E-1,-2.086987E-2,6.281301E-1,-0E0,4.9255382E-2],"categories":[],"categories_nodes":[],"categories_segments":[],"categories_sizes":[],"default_left":[0,0,0,0,0,0,0],"id":43,"left_children":[1,-1,3,-1,5,-1,-1],"loss_changes":[5.238818E3,0E0,5.4296875E0,0E0,1.0671387E0,0E0,0E0],"parents":[2147483647,0,0,2,2,4,4],"right_children":[2,-1,4,-1,6,-1,-1],"split_conditions":[1.8120338E-3,-4.6363868E-2,8.402514E1,-2.086987E-2,2.4048309E-1,-0E0,4.9255382E-2],"split_indices":[1,0,6,0,12,0,0],"split_type":[0,0,0,0,0,0,0],"sum_hessian":[1.4342222E4,8.091351E3,6.25087E3,5.532986E0,6.2453374E3,3.2856286E0,6.242052E3],"tree_param":{"num_deleted":"0","num_feature":"13","num_nodes":"7","size_leaf_vector":"1"}},{"base_weights":[1.8420637E-2,1.6128267E-1,-4.5030408E-2,2.1922313E-1,1.4666645E-1,3.6527216E-2,2.1752217E-1,1.7127976E-1,1.1225232E-2,1.51213305E-2,1.7518507E-2,-0E0,1.3483604E-2],"categories":[],"categories_nodes":[],"categories_segments":[],"categories_sizes":[],"default_left":[0,0,0,0,0,0,0,0,0,0,0,0,0],"id":44,"left_children":[1,3,-1,5,7,-1,9,11,-1,-1,-1,-1,-1],"loss_changes":[1.5756024E3,1.2469238E1,0E0,8.0830383E-1,8.2440186E-1,0E0,1.7800903E-1,2.6712036E-1,0E0,0E0,0E0,0E0,0E0],"parents":[2147483647,0,0,1,1,3,3,4,4,6,6,7,7],"right_children":[2,4,-1,6,8,-1,10,12,-1,-1,-1,-1,-1],"split_conditions":[1.8120338E-3,8.58708E1,-4.5030408E-2,1.0031743E0,8.874093E1,3.6527216E-2,8.628156E1,8.8E1,1.1225232E-2,1.51213305E-2,1.7518507E-2,-0E0,1.3483604E-2],"split_indices":[1,5,0,9,5,0,9,5,0,0,0,0,0],"split_type":[0,0,0,0,0,0,0,0,0,0,0,0,0],"sum_hessian":[1.8601092E4,1.4990777E4,3.6103135E3,3.0100312E3,1.1980747E4,1.6926027E1,2.9931052E3,1.4477502E3,1.0532996E4,6.0929407E2,2.383811E3,3.6206048E0,1.4441296E3],"tree_param":{"num_deleted":"0","num_feature":"13","num_nodes":"13","size_leaf_vector":"1"}},{"base_weights":[2.4237558E-2,1.4487395E-1,-4.7405672E-1,8.2662754E-2,1.2395682E-2,3.5906415E-2,-4.7583103E-1,-1.5274281E-2,8.363213E-2,-4.7719747E-1,8.74487E-2,1.17116705E-1,5.8007655E-3,-3.765049E-2,-3.0569786E-2,5.5123918E-2,-2.961261E-2,5.3855952E-2,8.656475E-3],"categories":[],"categories_nodes":[],"categories_segments":[],"categories_sizes":[],"default_left":[0,0,0,0,0,0,0,0,0,0,0,0,0,0,0,0,0,0,0],"id":45,"left_children":[1,3,5,7,-1,-1,9,-1,11,13,15,17,-1,-1,-1,-1,-1,-1,-1],"loss_changes":[1.1172963E3,1.2220703E1,6.171509E0,6.621437E-1,0E0,0E0,3.0309448E0,0E0,7.3690987E-1,3.7182617E-1,2.8043027E0,1.6845078E0,0E0,0E0,0E0,0E0,0E0,0E0,0E0],"parents":[2147483647,0,0,1,1,2,2,3,3,6,6,8,8,9,9,10,10,11,11],"right_children":[2,4,6,8,-1,-1,10,-1,12,14,16,18,-1,-1,-1,-1,-1,-1,-1],"split_conditions":[1.8120338E-3,-1.3358137E-1,8.402514E1,-1.9418015E-1,1.2395682E-2,3.5906415E-2,5.1056104E0,-1.5274281E-2,-1.376E-1,9E1,1.899089E0,1.7763107E0,5.8007655E-3,-3.765049E-2,-3.0569786E-2,5.5123918E-2,-2.961261E-2,5.3855952E-2,8.656475E-3],"split_indices":[1,7,6,7,0,0,11,0,7,9,1,8,0,0,0,0,0,0,0],"split_type":[0,0,0,0,0,0,0,0,0,0,0,0,0,0,0,0,0,0,0],"sum_hessian":[1.858812E4,1.4966427E4,3.6216929E3,2.6407776E3,1.2325649E4,5.9090505E0,3.6157837E3,6.6697426E0,2.634108E3,3.6081282E3,7.655499E0,5.7325775E2,2.06085E3,3.47197E3,1.3615814E2,3.6320462E0,4.0234523E0,4.7553325E0,5.6850244E2],"tree_param":{"num_deleted":"0","num_feature":"13","num_nodes":"19","size_leaf_vector":"1"}},{"base_weights":[-6.429195E-2,-5.8626944E-1,6.0848004E-1,-1.2490129E-2,-4.596312E-2,6.089333E-1,-2.8603175E-3,4.107871E-1,4.787349E-2,-2.3103201E-1,5.279261E-1,6.1713406E-3,-4.4306908E-2,-0E0,5.602073E-1,5.0569136E-2,2.7579194E-2],"categories":[],"categories_nodes":[],"categories_segments":[],"categories_sizes":[],"default_left":[0,0,0,0,0,0,0,0,0,0,0,0,0,0,0,0,0],"id":46,"left_children":[1,3,5,-1,-1,7,-1,9,-1,11,13,-1,-1,-1,15,-1,-1],"loss_changes":[4.8260127E3,3.540039E-2,2.0876465E0,0E0,0E0,1.4611816E0,0E0,4.856119E0,0E0,1.2611339E0,8.5324097E-1,0E0,0E0,0E0,1.498251E-1,0E0,0E0],"parents":[2147483647,0,0,1,1,2,2,5,5,7,7,9,9,10,10,14,14],"right_children":[2,4,6,-1,-1,8,-1,10,-1,12,14,-1,-1,-1,16,-1,-1],"split_conditions":[1.8120338E-3,-1.9418015E-1,2.4328476E-1,-1.2490129E-2,-4.596312E-2,4.8607817E-1,-2.8603175E-3,5E0,4.787349E-2,8.77722E-1,2.5E-1,6.1713406E-3,-4.4306908E-2,-0E0,1.17E0,5.0569136E-2,2.7579194E-2],"split_indices":[1,7,7,0,0,12,0,0,0,8,12,0,0,0,8,0,0],"split_type":[0,0,0,0,0,0,0,0,0,0,0,0,0,0,0,0,0],"sum_hessian":[1.3741057E4,7.738205E3,6.0028516E3,4.429941E0,7.7337754E3,5.999533E3,3.3187401E0,6.03677E1,5.9391655E3,8.47428E0,5.1893417E1,3.8529887E0,4.6212916E0,3.1769273E0,4.871649E1,3.1560143E1,1.715635E1],"tree_param":{"num_deleted":"0","num_feature":"13","num_nodes":"17","size_leaf_vector":"1"}},{"base_weights":[2.0172883E-2,1.5267792E-1,-4.4574294E-2,2.0978634E-1,1.3831314E-1,3.538746E-2,2.0867246E-1,1.554701E-1,1.0648778E-2,1.6735077E-2,1.4768669E-2,-4.345711E-3,1.2263598E-2],"categories":[],"categories_nodes":[],"categories_segments":[],"categories_sizes":[],"default_left":[0,0,0,0,0,0,0,0,0,0,0,0,0],"id":47,"left_children":[1,3,-1,5,7,-1,9,11,-1,-1,-1,-1,-1],"loss_changes":[1.4417068E3,1.2161133E1,0E0,3.765869E-1,3.299713E-1,0E0,4.2617798E-2,3.7217712E-1,0E0,0E0,0E0,0E0,0E0],"parents":[2147483647,0,0,1,1,3,3,4,4,6,6,7,7],"right_children":[2,4,-1,6,8,-1,10,12,-1,-1,-1,-1,-1],"split_conditions":[1.8120338E-3,8.58708E1,-4.4574294E-2,1.4688939E-1,8.874093E1,3.538746E-2,1.0031743E0,8.7996765E1,1.0648778E-2,1.6735077E-2,1.4768669E-2,-4.345711E-3,1.2263598E-2],"split_indices":[1,5,0,3,5,0,8,5,0,0,0,0,0],"split_type":[0,0,0,0,0,0,0,0,0,0,0,0,0],"sum_hessian":[1.8477703E4,1.5084927E4,3.3927754E3,3.021946E3,1.2062981E4,1.0145045E1,3.011801E3,1.4727684E3,1.0590213E4,2.4022927E3,6.095081E2,4.1266437E0,1.4686418E3],"tree_param":{"num_deleted":"0","num_feature":"13","num_nodes":"13","size_leaf_vector":"1"}},{"base_weights":[2.745632E-2,1.3971145E-1,-4.636821E-1,1.1843972E-2,7.004775E-3,-3.6669288E-2,-1.7306384E-1,5.4563385E-2,-3.2454598E-1,-4.251805E-2,-0E0,-1.5868388E-1,5.0843783E-2,3.768284E-2,-3.9039984E-2],"categories":[],"categories_nodes":[],"categories_segments":[],"categories_sizes":[],"default_left":[0,0,0,0,0,0,0,0,0,0,0,0,0,0,0],"id":48,"left_children":[1,3,5,-1,-1,-1,7,-1,9,-1,11,13,-1,-1,-1],"loss_changes":[1.01464264E3,8.4565735E0,3.7305298E0,0E0,0E0,0E0,6.7545633E0,0E0,3.147347E0,0E0,2.0020094E0,3.651284E0,0E0,0E0,0E0],"parents":[2147483647,0,0,1,1,2,2,6,6,8,8,10,10,11,11],"right_children":[2,4,6,-1,-1,-1,8,-1,10,-1,12,14,-1,-1,-1],"split_conditions":[1.8120338E-3,1E0,2.242531E0,1.1843972E-2,7.004775E-3,-3.6669288E-2,1E0,5.4563385E-2,1.17E0,-4.251805E-2,5.1056104E0,4.883166E0,5.0843783E-2,3.768284E-2,-3.9039984E-2],"split_indices":[10,0,0,0,0,0,4,0,8,0,11,2,0,0,0],"split_type":[0,0,0,0,0,0,0,0,0,0,0,0,0,0,0],"sum_hessian":[1.8405146E4,1.4982427E4,3.4227192E3,1.2205514E4,2.776913E3,3.3719878E3,5.0731586E1,6.572553E0,4.4159035E1,2.5999437E1,1.8159597E1,1.5135734E1,3.0238628E0,4.572592E0,1.0563142E1],"tree_param":{"num_deleted":"0","num_feature":"13","num_nodes":"15","size_leaf_vector":"1"}},{"base_weights":[-7.064404E-2,-5.814053E-1,5.9116954E-1,-1.1973296E-2,-4.558224E-2,-1.8189138E-2,5.92014E-1,-0E0,4.6425425E-2],"categories":[],"categories_nodes":[],"categories_segments":[],"categories_sizes":[],"default_left":[0,0,0,0,0,0,0,0,0],"id":49,"left_children":[1,3,5,-1,-1,-1,7,-1,-1],"loss_changes":[4.4502705E3,4.1259766E-2,4.2921143E0,0E0,0E0,0E0,1.0106201E0,0E0,0E0],"parents":[2147483647,0,0,1,1,2,2,6,6],"right_children":[2,4,6,-1,-1,-1,8,-1,-1],"split_conditions":[1.8120338E-3,-1.9418015E-1,8.402514E1,-1.1973296E-2,-4.558224E-2,-1.8189138E-2,2.5E-1,-0E0,4.6425425E-2],"split_indices":[1,7,6,0,0,0,12,0,0],"split_type":[0,0,0,0,0,0,0,0,0],"sum_hessian":[1.3163802E4,7.4303115E3,5.7334897E3,4.36782E0,7.425944E3,4.987771E0,5.728502E3,3.1331346E0,5.7253687E3],"tree_param":{"num_deleted":"0","num_feature":"13","num_nodes":"9","size_leaf_vector":"1"}},{"base_weights":[2.2276677E-2,-4.4156503E-2,1.4670677E-1,1.993365E-1,1.3352041E-1,3.4079507E-2,1.55382445E-2,-9.470095E-3,1.336721E-1,1.1897496E-2,1.0276996E-2],"categories":[],"categories_nodes":[],"categories_segments":[],"categories_sizes":[],"default_left":[0,0,0,0,0,0,0,0,0,0,0],"id":50,"left_children":[1,-1,3,5,7,-1,-1,-1,9,-1,-1],"loss_changes":[1.3311101E3,0E0,1.0253387E1,3.560791E-1,4.8501587E-1,0E0,0E0,0E0,3.8613892E-1,0E0,0E0],"parents":[2147483647,0,0,2,2,3,3,4,4,8,8],"right_children":[2,-1,4,6,8,-1,-1,-1,10,-1,-1],"split_conditions":[9.99E2,-4.4156503E-2,8.58708E1,3.6722344E-1,8.8E1,3.4079507E-2,1.55382445E-2,-9.470095E-3,8.874093E1,1.1897496E-2,1.0276996E-2],"split_indices":[6,0,5,2,5,0,0,0,5,0,0],"split_type":[0,0,0,0,0,0,0,0,0,0,0],"sum_hessian":[1.826767E4,3.199841E3,1.5067828E4,3.0082856E3,1.2059543E4,1.0096847E1,2.9981887E3,4.653603E0,1.205489E4,1.4554882E3,1.0599401E4],"tree_param":{"num_deleted":"0","num_feature":"13","num_nodes":"11","size_leaf_vector":"1"}},{"base_weights":[2.9760167E-2,1.3557886E-1,-4.570913E-1,1.1579413E-2,8.177005E-2,4.137937E-2,-4.5913944E-1,-2.6056167E-2,8.2983226E-2,-4.6035454E-1,6.273386E-2,8.053319E-3,7.7482484E-2,-2.622766E-1,-3.621674E-2,4.9654525E-2,-2.6411712E-2,5.9024086E-3,8.359664E-3,4.0029413E-1,-4.1610684E-2,-0E0,4.5778252E-2],"categories":[],"categories_nodes":[],"categories_segments":[],"categories_sizes":[],"default_left":[0,0,0,0,0,0,0,0,0,0,0,0,0,0,0,0,0,0,0,0,0,0,0],"id":51,"left_children":[1,3,5,-1,7,-1,9,-1,11,13,15,-1,17,19,-1,-1,-1,-1,-1,21,-1,-1,-1],"loss_changes":[9.3921674E2,9.664307E0,6.7178345E0,0E0,1.2766075E0,0E0,2.30188E0,0E0,1.9512367E-1,6.1206055E-1,1.9686508E0,0E0,3.2385826E-2,6.0228777E0,0E0,0E0,0E0,0E0,0E0,5.456227E-1,0E0,0E0,0E0],"parents":[2147483647,0,0,1,1,2,2,4,4,6,6,8,8,9,9,10,10,12,12,13,13,19,19],"right_children":[2,4,6,-1,8,-1,10,-1,12,14,16,-1,18,20,-1,-1,-1,-1,-1,22,-1,-1,-1],"split_conditions":[1.8120338E-3,1E0,8.402514E1,1.1579413E-2,-1.9418015E-1,4.137937E-2,5.1056104E0,-2.6056167E-2,-1.376E-1,1.810799E-2,7.242025E0,8.053319E-3,-1.3358137E-1,5E0,-3.621674E-2,4.9654525E-2,-2.6411712E-2,5.9024086E-3,8.359664E-3,8.758298E1,-4.1610684E-2,-0E0,4.5778252E-2],"split_indices":[1,0,6,0,7,0,11,0,7,7,0,0,7,0,0,0,0,0,0,6,0,0,0],"split_type":[0,0,0,0,0,0,0,0,0,0,0,0,0,0,0,0,0,0,0,0,0,0,0],"sum_hessian":[1.8232568E4,1.4978615E4,3.2539539E3,1.2208404E4,2.770211E3,5.777501E0,3.2481763E3,6.1411724E0,2.7640698E3,3.2417756E3,6.400555E0,5.769472E2,2.1871226E3,3.1722157E1,3.2100535E3,3.0154793E0,3.3850758E0,2.0555059E3,1.3161674E2,8.448859E0,2.3273298E1,3.2951696E0,5.15369E0],"tree_param":{"num_deleted":"0","num_feature":"13","num_nodes":"23","size_leaf_vector":"1"}},{"base_weights":[-7.799558E-2,-4.521449E-2,5.757411E-1,-1.9312585E-2,5.7666945E-1,4.525466E-2,1.00973696E-1,-3.8494863E-2,3.9882295E-2],"categories":[],"categories_nodes":[],"categories_segments":[],"categories_sizes":[],"default_left":[0,0,0,0,0,0,0,0,0],"id":52,"left_children":[1,-1,3,-1,5,-1,7,-1,-1],"loss_changes":[4.1170464E3,0E0,4.4627686E0,0E0,1.4454346E0,0E0,2.6999652E0,0E0,0E0],"parents":[2147483647,0,0,2,2,4,4,6,6],"right_children":[2,-1,4,-1,6,-1,8,-1,-1],"split_conditions":[1.8120338E-3,-4.521449E-2,8.402514E1,-1.9312585E-2,5.1056104E0,4.525466E-2,7.242025E0,-3.8494863E-2,3.9882295E-2],"split_indices":[1,0,6,0,11,0,0,0,0],"split_type":[0,0,0,0,0,0,0,0,0],"sum_hessian":[1.2622139E4,7.1595093E3,5.4626294E3,5.259015E0,5.4573706E3,5.447821E3,9.549679E0,3.2792072E0,6.270471E0],"tree_param":{"num_deleted":"0","num_feature":"13","num_nodes":"9","size_leaf_vector":"1"}},{"base_weights":[2.2541987E-2,1.381749E-1,-4.3773346E-2,1.745779E-1,9.624852E-3,1.8540777E-1,1.5173419E-1,3.9950974E-2,1.8316635E-1,-9.205487E-3,1.1994595E-2,1.6445634E-1,1.8769497E-1,-3.6759574E-2,1.3295377E-2,1.4911297E-2,1.1136343E-2],"categories":[],"categories_nodes":[],"categories_segments":[],"categories_sizes":[],"default_left":[0,0,0,0,0,0,0,0,0,0,0,0,0,0,0,0,0],"id":53,"left_children":[1,3,-1,5,-1,7,9,-1,11,-1,-1,13,15,-1,-1,-1,-1],"loss_changes":[1.2163303E3,8.272247E0,0E0,8.9868164E-1,0E0,1.7362595E0,5.443535E-1,0E0,3.578186E-2,0E0,0E0,1.9094486E0,7.330322E-2,0E0,0E0,0E0,0E0],"parents":[2147483647,0,0,1,1,3,3,5,5,6,6,8,8,11,11,12,12],"right_children":[2,4,-1,6,-1,8,10,-1,12,-1,-1,14,16,-1,-1,-1,-1],"split_conditions":[1.8120338E-3,8.874093E1,-4.3773346E-2,8.58708E1,9.624852E-3,1.0031743E0,8.8E1,3.9950974E-2,-1.376E-1,-9.205487E-3,1.1994595E-2,1.7763107E0,-1.3358137E-1,-3.6759574E-2,1.3295377E-2,1.4911297E-2,1.1136343E-2],"split_indices":[1,5,0,5,0,9,5,0,7,0,0,8,7,0,0,0,0],"split_type":[0,0,0,0,0,0,0,0,0,0,0,0,0,0,0,0,0],"sum_hessian":[1.8105637E4,1.51017295E4,3.0039072E3,4.471268E3,1.0630461E4,3.013122E3,1.458146E3,1.7780788E1,2.9953413E3,4.6386795E0,1.4535073E3,6.130987E2,2.3822427E3,3.5377367E0,6.095609E2,2.2421938E3,1.4004872E2],"tree_param":{"num_deleted":"0","num_feature":"13","num_nodes":"17","size_leaf_vector":"1"}},{"base_weights":[3.2074135E-2,1.2805471E-1,-4.469258E-1,1.3956933E-1,7.77438E-2,-3.5118867E-2,3.2283448E-2,1.0914609E-2,6.080657E-2,8.232703E-2,-3.3590314E-1,1.1078833E-1,7.441241E-2,-4.5640984E-1,1.7572679E-2,-6.895576E-3,1.137357E-1,7.484349E-2,-3.3151351E-3,-4.1332647E-2,-0E0,3.7318747E-2,-2.5560534E-2,8.688187E-3,2.8541816E-2,5.65434E-3,8.78915E-3],"categories":[],"categories_nodes":[],"categories_segments":[],"categories_sizes":[],"default_left":[0,0,0,0,0,0,0,0,0,0,0,0,0,0,0,0,0,0,0,0,0,0,0,0,0,0,0],"id":54,"left_children":[1,3,5,7,9,-1,-1,-1,-1,11,13,15,17,19,21,-1,23,25,-1,-1,-1,-1,-1,-1,-1,-1,-1],"loss_changes":[8.3298E2,8.618103E0,3.1325073E0,1.8627167E0,5.2330017E0,0E0,0E0,0E0,0E0,5.208225E-1,1.5159817E0,3.6827898E-1,1.3124466E-1,7.806096E-1,1.3321346E0,0E0,1.3002443E-1,1.1386776E-1,0E0,0E0,0E0,0E0,0E0,0E0,0E0,0E0,0E0],"parents":[2147483647,0,0,1,1,2,2,3,3,4,4,9,9,10,10,11,11,12,12,13,13,14,14,16,16,17,17],"right_children":[2,4,6,8,10,-1,-1,-1,-1,12,14,16,18,20,22,-1,24,26,-1,-1,-1,-1,-1,-1,-1,-1,-1],"split_conditions":[1.810799E-2,1E0,2.73624E-1,1E0,4.0263376E0,-3.5118867E-2,3.2283448E-2,1.0914609E-2,6.080657E-2,-1.376E-1,5.1056104E0,-1.9418015E-1,1.0388818E0,-1.4733692E-1,8.68943E0,-6.895576E-3,-1.8744884E-1,-1.3358137E-1,-3.3151351E-3,-4.1332647E-2,-0E0,3.7318747E-2,-2.5560534E-2,8.688187E-3,2.8541816E-2,5.65434E-3,8.78915E-3],"split_indices":[7,4,7,0,2,0,0,0,0,7,11,7,4,7,0,0,7,7,0,0,0,0,0,0,0,0,0],"split_type":[0,0,0,0,0,0,0,0,0,0,0,0,0,0,0,0,0,0,0,0,0,0,0,0,0,0,0],"sum_hessian":[1.8120297E4,1.5096939E4,3.023357E3,1.2275191E4,2.821748E3,3.0203525E3,3.0046158E0,1.2270956E4,4.2347918E0,2.7927612E3,2.8986656E1,5.902933E2,2.202468E3,2.260944E1,6.3772144E0,5.565179E0,5.847281E2,2.1993445E3,3.1236677E0,1.954671E1,3.0627315E0,3.2896433E0,3.0875711E0,5.8135406E2,3.3740263E0,2.066682E3,1.3266241E2],"tree_param":{"num_deleted":"0","num_feature":"13","num_nodes":"27","size_leaf_vector":"1"}},{"base_weights":[-8.283388E-2,5.613561E-1,-5.726546E-1,-1.6108582E-2,5.622028E-1,-9.566049E-3,-4.4897415E-2,-0E0,5.625072E-1,4.2487112E-1,4.4180706E-2,-4.580511E-2,5.2110076E-1,5.3701927E-3,4.3548763E-2],"categories":[],"categories_nodes":[],"categories_segments":[],"categories_sizes":[],"default_left":[0,0,0,0,0,0,0,0,0,0,0,0,0,0,0],"id":55,"left_children":[1,3,5,-1,7,-1,-1,-1,9,11,-1,-1,13,-1,-1],"loss_changes":[3.8006667E3,3.6646729E0,1.0229492E-1,0E0,8.092041E-1,0E0,0E0,0E0,1.10839844E-1,5.1785803E0,0E0,0E0,3.7145233E-1,0E0,0E0],"parents":[2147483647,0,0,1,1,2,2,4,4,8,8,9,9,12,12],"right_children":[2,4,6,-1,8,-1,-1,-1,10,12,-1,-1,14,-1,-1],"split_conditions":[9.99E2,8.402514E1,-1.9418015E-1,-1.6108582E-2,2.4048309E-1,-9.566049E-3,-4.4897415E-2,-0E0,4.8607817E-1,1E0,4.4180706E-2,-4.580511E-2,5E0,5.3701927E-3,4.3548763E-2],"split_indices":[6,6,7,0,12,0,0,0,12,4,0,0,0,0,0],"split_type":[0,0,0,0,0,0,0,0,0,0,0,0,0,0,0],"sum_hessian":[1.2043454E4,5.2014736E3,6.8419805E3,4.8107524E0,5.1966626E3,4.09113E0,6.8378896E3,3.0657277E0,5.193597E3,5.044814E1,5.143149E3,3.5480552E0,4.690008E1,4.6199145E0,4.2280167E1],"tree_param":{"num_deleted":"0","num_feature":"13","num_nodes":"15","size_leaf_vector":"1"}},{"base_weights":[2.3724489E-2,-4.342206E-2,1.3121651E-1,1.7550361E-1,1.2010227E-1,3.374409E-2,1.7367339E-1,-3.9102063E-2,1.2039366E-1,1.1272331E-2,1.8109764E-1,1.0310785E-2,9.310284E-3,1.4397444E-2,1.0525206E-2],"categories":[],"categories_nodes":[],"categories_segments":[],"categories_sizes":[],"default_left":[0,0,0,0,0,0,0,0,0,0,0,0,0,0,0],"id":56,"left_children":[1,-1,3,5,7,-1,9,-1,11,-1,13,-1,-1,-1,-1],"loss_changes":[1.1141171E3,0E0,7.267853E0,1.0200577E0,2.022171E0,0E0,4.668274E-1,0E0,6.692505E-2,0E0,9.5695496E-2,0E0,0E0,0E0,0E0],"parents":[2147483647,0,0,2,2,3,3,4,4,6,6,8,8,10,10],"right_children":[2,-1,4,6,8,-1,10,-1,12,-1,14,-1,-1,-1,-1],"split_conditions":[9.99E2,-4.342206E-2,8.58708E1,1.0031743E0,8.8E1,3.374409E-2,-1.376E-1,-3.9102063E-2,8.874093E1,1.1272331E-2,-1.3358137E-1,1.0310785E-2,9.310284E-3,1.4397444E-2,1.0525206E-2],"split_indices":[6,0,5,9,5,0,7,0,5,0,7,0,0,0,0],"split_type":[0,0,0,0,0,0,0,0,0,0,0,0,0,0,0],"sum_hessian":[1.7942336E4,2.8133313E3,1.5129004E4,3.0228171E3,1.2106187E4,1.8090794E1,3.0047263E3,4.1779532E0,1.2102009E4,6.1636224E2,2.388364E3,1.4725763E3,1.0629433E4,2.2496445E3,1.3871953E2],"tree_param":{"num_deleted":"0","num_feature":"13","num_nodes":"15","size_leaf_vector":"1"}},{"base_weights":[3.2704618E-2,1.2217769E-1,-4.317772E-1,7.843138E-2,1.3209519E-1,-4.3660608E-1,-1.2177186E-1,-1.642439E-2,8.017394E-2,1.1129447E-1,1.057128E-2,-4.40293E-1,-2.6296778E-2,1.9135708E-1,-3.187584E-1,7.3086102E-3,5.992904E-3,3.5663296E-2,8.573577E-3,-4.244061E-2,-3.428776E-2,-2.2065292E-1,4.4662092E-2,-3.3579096E-2,-0E0,-0E0,-2.922934E-2,3.7639096E-2,-2.7428903E-2],"categories":[],"categories_nodes":[],"categories_segments":[],"categories_sizes":[],"default_left":[0,0,0,0,0,0,0,0,0,0,0,0,0,0,0,0,0,0,0,0,0,0,0,0,0,0,0,0,0],"id":57,"left_children":[1,3,5,7,9,11,13,-1,15,17,-1,19,-1,21,23,-1,-1,-1,-1,-1,-1,25,-1,-1,27,-1,-1,-1,-1],"loss_changes":[7.475965E2,6.4217987E0,3.999939E0,1.3472366E0,5.6321716E-1,5.227051E-1,3.0410979E0,0E0,3.6188126E-2,6.181793E-1,0E0,6.286621E-2,0E0,3.05206E0,1.2495134E0,0E0,0E0,0E0,0E0,0E0,0E0,3.2267103E-1,0E0,0E0,1.4602077E0,0E0,0E0,0E0,0E0],"parents":[2147483647,0,0,1,1,2,2,3,3,4,4,5,5,6,6,8,8,9,9,11,11,13,13,14,14,21,21,24,24],"right_children":[2,4,6,8,10,12,14,-1,16,18,-1,20,-1,22,24,-1,-1,-1,-1,-1,-1,26,-1,-1,28,-1,-1,-1,-1],"split_conditions":[1.8120338E-3,8.58708E1,2.242531E0,1.0031743E0,8.874093E1,9E1,2.2595522E0,-1.642439E-2,-1.376E-1,8.8E1,1.057128E-2,2E0,-2.6296778E-2,1.3120501E0,5.1056104E0,7.3086102E-3,5.992904E-3,3.5663296E-2,8.573577E-3,-4.244061E-2,-3.428776E-2,3.474911E0,4.4662092E-2,-3.3579096E-2,8.306054E0,-0E0,-2.922934E-2,3.7639096E-2,-2.7428903E-2],"split_indices":[1,5,0,9,5,9,3,0,7,5,0,9,0,9,11,0,0,0,0,0,0,0,0,0,0,0,0,0,0],"split_type":[0,0,0,0,0,0,0,0,0,0,0,0,0,0,0,0,0,0,0,0,0,0,0,0,0,0,0,0,0],"sum_hessian":[1.7991295E4,1.5086874E4,2.904421E3,2.7997249E3,1.2287149E4,2.8578098E3,4.6611256E1,1.43774E1,2.7853474E3,1.4756583E3,1.0811491E4,2.7494678E3,1.0834196E2,1.6928274E1,2.968298E1,5.7905206E2,2.2062954E3,5.5255866E0,1.4701327E3,6.541134E1,2.6840564E3,7.564168E0,9.364106E0,2.2890621E1,6.7923594E0,3.1036615E0,4.4605064E0,3.2596662E0,3.5326931E0],"tree_param":{"num_deleted":"0","num_feature":"13","num_nodes":"29","size_leaf_vector":"1"}},{"base_weights":[-8.8636465E-2,-5.6872606E-1,5.4890674E-1,-8.755806E-3,-4.458996E-2,-1.5682684E-2,5.497702E-1,4.313987E-2,6.273207E-2,-2.4833059E-2,3.4440767E-2],"categories":[],"categories_nodes":[],"categories_segments":[],"categories_sizes":[],"default_left":[0,0,0,0,0,0,0,0,0,0,0],"id":58,"left_children":[1,3,5,-1,-1,-1,7,-1,9,-1,-1],"loss_changes":[3.5332976E3,1.19628906E-1,3.4854736E0,0E0,0E0,0E0,1.1685791E0,0E0,1.386864E0,0E0,0E0],"parents":[2147483647,0,0,1,1,2,2,6,6,8,8],"right_children":[2,4,6,-1,-1,-1,8,-1,10,-1,-1],"split_conditions":[1.8120338E-3,-1.9418015E-1,8.402514E1,-8.755806E-3,-4.458996E-2,-1.5682684E-2,5.1056104E0,4.313987E-2,1.9185723E0,-2.4833059E-2,3.4440767E-2],"split_indices":[1,7,6,0,0,0,11,0,1,0,0],"split_type":[0,0,0,0,0,0,0,0,0,0,0],"sum_hessian":[1.1542174E4,6.584666E3,4.9575073E3,4.0012293E0,6.580665E3,4.76657E0,4.9527407E3,4.945055E3,7.6857E0,3.1616817E0,4.5240183E0],"tree_param":{"num_deleted":"0","num_feature":"13","num_nodes":"11","size_leaf_vector":"1"}},{"base_weights":[2.7893461E-2,1.2875974E-1,-4.309929E-2,1.6921407E-1,9.346038E-3,1.3662383E-2,1.17128575E-2],"categories":[],"categories_nodes":[],"categories_segments":[],"categories_sizes":[],"default_left":[0,0,0,0,0,0,0],"id":59,"left_children":[1,3,-1,5,-1,-1,-1],"loss_changes":[1.0362487E3,5.655182E0,0E0,9.081268E-2,0E0,0E0,0E0],"parents":[2147483647,0,0,1,1,3,3],"right_children":[2,4,-1,6,-1,-1,-1],"split_conditions":[1.8120338E-3,-1.3358137E-1,-4.309929E-2,1.0031743E0,9.346038E-3,1.3662383E-2,1.17128575E-2],"split_indices":[1,7,0,8,0,0,0],"split_type":[0,0,0,0,0,0,0],"sum_hessian":[1.7783174E4,1.5141418E4,2.6417544E3,2.870165E3,1.2271254E4,2.2547551E3,6.1540985E2],"tree_param":{"num_deleted":"0","num_feature":"13","num_nodes":"7","size_leaf_vector":"1"}},{"base_weights":[3.280952E-2,1.153656E-1,-4.2032462E-1,7.743221E-2,1.23904265E-1,-4.2185488E-1,4.9033374E-2,-2.0002982E-2,7.928643E-2,1.06941104E-1,9.890663E-3,-4.2297503E-1,2.4682196E-2,2.2633059E-2,7.8749634E-2,2.4089301E-2,8.284978E-3,-4.2382464E-1,-0E0,6.0162744E-3,8.9120595E-3,-4.278666E-1,-2.4750095E-2,-4.232237E-2,-3.3264447E-2],"categories":[],"categories_nodes":[],"categories_segments":[],"categories_sizes":[],"default_left":[0,0,0,0,0,0,0,0,0,0,0,0,0,0,0,0,0,0,0,0,0,0,0,0,0],"id":60,"left_children":[1,3,5,7,9,11,-1,-1,13,15,-1,17,-1,-1,19,-1,-1,21,-1,-1,-1,23,-1,-1,-1],"loss_changes":[6.684704E2,4.7789764E0,4.5010986E0,1.6410179E0,3.393402E-1,2.4335327E0,0E0,0E0,9.2271805E-2,1.18312836E-1,0E0,9.30603E-1,0E0,0E0,8.1352234E-2,0E0,0E0,6.821289E-1,0E0,0E0,0E0,3.1149292E-1,0E0,0E0,0E0],"parents":[2147483647,0,0,1,1,2,2,3,3,4,4,5,5,8,8,9,9,11,11,14,14,17,17,21,21],"right_children":[2,4,6,8,10,12,-1,-1,14,16,-1,18,-1,-1,20,-1,-1,22,-1,-1,-1,24,-1,-1,-1],"split_conditions":[1.8120338E-3,8.58708E1,8.58708E1,1.0031743E0,8.874093E1,2.433E-1,4.9033374E-2,-2.0002982E-2,-1.908E-1,8.8E1,9.890663E-3,5.1056104E0,2.4682196E-2,2.2633059E-2,-1.3358137E-1,2.4089301E-2,8.284978E-3,9E1,-0E0,6.0162744E-3,8.9120595E-3,2E0,-2.4750095E-2,-4.232237E-2,-3.3264447E-2],"split_indices":[10,5,5,9,5,7,0,0,7,5,0,11,0,0,7,0,0,9,0,0,0,9,0,0,0],"split_type":[0,0,0,0,0,0,0,0,0,0,0,0,0,0,0,0,0,0,0,0,0,0,0,0,0],"sum_hessian":[1.7871945E4,1.5119192E4,2.7527534E3,2.7912617E3,1.2327931E4,2.7497231E3,3.0303042E0,1.3234382E1,2.7780273E3,1.4977029E3,1.0830229E4,2.7466277E3,3.0955207E0,3.4056203E0,2.7746216E3,5.2636228E0,1.4924392E3,2.7408044E3,5.8232226E0,2.6424312E3,1.3219055E2,2.6348271E3,1.0597735E2,7.044028E1,2.564387E3],"tree_param":{"num_deleted":"0","num_feature":"13","num_nodes":"25","size_leaf_vector":"1"}},{"base_weights":[-9.331606E-2,-5.650498E-1,5.357355E-1,-5.6760963E-3,-4.4302355E-2,5.361872E-1,-0E0,5.380779E-1,3.683227E-1,4.2370107E-2,3.6873717E-2,-2.5957626E-1,4.629579E-1,-0E0,-2.7833598E-2,4.6269055E-2,2.3013203E-1,2.6230318E-2,-1.2067318E-2],"categories":[],"categories_nodes":[],"categories_segments":[],"categories_sizes":[],"default_left":[0,0,0,0,0,0,0,0,0,0,0,0,0,0,0,0,0,0,0],"id":61,"left_children":[1,3,5,-1,-1,7,-1,9,11,-1,-1,13,15,-1,-1,-1,17,-1,-1],"loss_changes":[3.2745583E3,2.0007324E-1,1.3603516E0,0E0,0E0,8.4558105E-1,0E0,3.57666E-2,3.6731534E0,0E0,0E0,3.6514133E-2,9.766388E-1,0E0,0E0,0E0,9.8732483E-1,0E0,0E0],"parents":[2147483647,0,0,1,1,2,2,5,5,7,7,8,8,11,11,12,12,16,16],"right_children":[2,4,6,-1,-1,8,-1,10,12,-1,-1,14,16,-1,-1,-1,18,-1,-1],"split_conditions":[1.8120338E-3,-1.9418015E-1,2.4288306E-1,-5.6760963E-3,-4.4302355E-2,1.242531E0,-0E0,9E1,2.4258811E0,4.2370107E-2,3.6873717E-2,8.4787056E1,1.17E0,-0E0,-2.7833598E-2,4.6269055E-2,-1.4733692E-1,2.6230318E-2,-1.2067318E-2],"split_indices":[1,7,7,0,0,3,0,9,2,0,0,5,8,0,0,0,7,0,0],"split_type":[0,0,0,0,0,0,0,0,0,0,0,0,0,0,0,0,0,0,0],"sum_hessian":[1.1033297E4,6.3056016E3,4.727696E3,3.6346562E0,6.301967E3,4.724464E3,3.2314808E0,4.666895E3,5.756895E1,4.486944E3,1.799511E2,6.5995226E0,5.096943E1,3.1476908E0,3.4518316E0,3.0641209E1,2.0328222E1,1.7185734E1,3.142488E0],"tree_param":{"num_deleted":"0","num_feature":"13","num_nodes":"19","size_leaf_vector":"1"}},{"base_weights":[2.5632786E-2,1.1956139E-1,-4.28023E-2,8.692863E-3,1.5450859E-1,5.92009E-4,1.2133702E-2],"categories":[],"categories_nodes":[],"categories_segments":[],"categories_sizes":[],"default_left":[0,0,0,0,0,0,0],"id":62,"left_children":[1,3,-1,-1,5,-1,-1],"loss_changes":[9.4689545E2,4.421036E0,0E0,0E0,4.1931152E-2,0E0,0E0],"parents":[2147483647,0,0,1,1,4,4],"right_children":[2,4,-1,-1,6,-1,-1],"split_conditions":[1.8120338E-3,1E0,-4.28023E-2,8.692863E-3,-1.908E-1,5.92009E-4,1.2133702E-2],"split_indices":[10,0,0,0,7,0,0],"split_type":[0,0,0,0,0,0,0],"sum_hessian":[1.7635062E4,1.514801E4,2.4870537E3,1.2157134E4,2.9908757E3,9.89307E0,2.9809827E3],"tree_param":{"num_deleted":"0","num_feature":"13","num_nodes":"7","size_leaf_vector":"1"}},{"base_weights":[3.1946268E-2,1.08856164E-1,-4.124778E-1,7.363328E-2,1.1687442E-1,-4.140354E-1,4.673787E-2,-1.831365E-2,7.529311E-2,3.388725E-2,1.1666123E-1,-4.15177E-1,2.3749031E-2,6.9308933E-3,7.155405E-2,7.7666123E-3,9.329521E-3,-4.16391E-1,-0E0,5.4225437E-3,8.110016E-3,-4.2073414E-1,-2.361447E-2,3.5428345E-2,-2.63317E-2,-4.2025734E-2,-3.270088E-2],"categories":[],"categories_nodes":[],"categories_segments":[],"categories_sizes":[],"default_left":[0,0,0,0,0,0,0,0,0,0,0,0,0,0,0,0,0,0,0,0,0,0,0,0,0,0,0],"id":63,"left_children":[1,3,5,7,9,11,-1,-1,13,-1,15,17,-1,-1,19,-1,-1,21,23,-1,-1,25,-1,-1,-1,-1,-1],"loss_changes":[6.04626E2,4.14859E0,4.1923523E0,1.3607693E0,4.836731E-1,2.293518E0,0E0,0E0,4.4421196E-2,0E0,3.816223E-1,1.4880676E0,0E0,0E0,6.690502E-2,0E0,0E0,8.0133057E-1,1.2847253E0,0E0,0E0,3.1304932E-1,0E0,0E0,0E0,0E0,0E0],"parents":[2147483647,0,0,1,1,2,2,3,3,4,4,5,5,8,8,10,10,11,11,14,14,17,17,18,18,21,21],"right_children":[2,4,6,8,10,12,-1,-1,14,-1,16,18,-1,-1,20,-1,-1,22,24,-1,-1,26,-1,-1,-1,-1,-1],"split_conditions":[1.8120338E-3,8.58708E1,8.58708E1,1.0031743E0,8.8E1,2.433E-1,4.673787E-2,-1.831365E-2,-1.376E-1,3.388725E-2,8.874093E1,5.1056104E0,2.3749031E-2,6.9308933E-3,-1.3358137E-1,7.7666123E-3,9.329521E-3,9E1,8.010193E1,5.4225437E-3,8.110016E-3,2E0,-2.361447E-2,3.5428345E-2,-2.63317E-2,-4.2025734E-2,-3.270088E-2],"split_indices":[1,5,5,9,5,7,0,0,7,0,5,11,0,0,7,0,0,9,5,0,0,9,0,0,0,0,0],"split_type":[0,0,0,0,0,0,0,0,0,0,0,0,0,0,0,0,0,0,0,0,0,0,0,0,0,0,0],"sum_hessian":[1.7692236E4,1.5083745E4,2.6084915E3,2.8112097E3,1.2272535E4,2.605475E3,3.0163274E0,1.2733657E1,2.798476E3,5.4735694E0,1.2267062E4,2.6024287E3,3.0462267E0,5.8351935E2,2.2149565E3,1.490014E3,1.0777048E4,2.5958542E3,6.5745416E0,2.0802407E3,1.3471584E2,2.4948562E3,1.0099805E2,3.224442E0,3.3500996E0,6.559358E1,2.4292627E3],"tree_param":{"num_deleted":"0","num_feature":"13","num_nodes":"27","size_leaf_vector":"1"}},{"base_weights":[-1.0040572E-1,5.229766E-1,-5.616252E-1,-1.5948169E-2,5.238899E-1,-9.448236E-3,-4.4034354E-2,3.4319505E-1,4.1203547E-2,-4.6593893E-2,4.4932032E-1,4.510034E-2,2.1963456E-1,-0E0,3.1138308E-2],"categories":[],"categories_nodes":[],"categories_segments":[],"categories_sizes":[],"default_left":[0,0,0,0,0,0,0,0,0,0,0,0,0,0,0],"id":64,"left_children":[1,3,5,-1,7,-1,-1,9,-1,-1,11,-1,13,-1,-1],"loss_changes":[3.0265283E3,3.22937E0,8.642578E-2,0E0,8.436279E-1,0E0,0E0,5.0682626E0,0E0,0E0,7.830181E-1,0E0,6.4006966E-1,0E0,0E0],"parents":[2147483647,0,0,1,1,2,2,4,4,7,7,10,10,12,12],"right_children":[2,4,6,-1,8,-1,-1,10,-1,-1,12,-1,14,-1,-1],"split_conditions":[9.99E2,8.402514E1,-1.9418015E-1,-1.5948169E-2,4.8607817E-1,-9.448236E-3,-4.4034354E-2,1E0,4.1203547E-2,-4.6593893E-2,1.17E0,4.510034E-2,-1.5871315E-1,-0E0,3.1138308E-2],"split_indices":[6,6,7,0,12,0,0,4,0,0,8,0,7,0,0],"split_type":[0,0,0,0,0,0,0,0,0,0,0,0,0,0,0],"sum_hessian":[1.0524814E4,4.4750527E3,6.0497617E3,4.644131E0,4.470408E3,4.1086097E0,6.045653E3,4.885723E1,4.4215513E3,4.074233E0,4.4782997E1,2.6603514E1,1.8179482E1,9.110298E0,9.069184E0],"tree_param":{"num_deleted":"0","num_feature":"13","num_nodes":"15","size_leaf_vector":"1"}},{"base_weights":[2.5510125E-2,1.12634376E-1,-4.252952E-2,1.484608E-1,1.03737384E-1,3.4102306E-2,1.1489741E-2,-1.1511149E-2,1.0389537E-1,9.141387E-3,8.00009E-3],"categories":[],"categories_nodes":[],"categories_segments":[],"categories_sizes":[],"default_left":[0,0,0,0,0,0,0,0,0,0,0],"id":65,"left_children":[1,3,-1,5,7,-1,-1,-1,9,-1,-1],"loss_changes":[8.6864777E2,4.700592E0,0E0,1.2429581E0,4.7158813E-1,0E0,0E0,0E0,1.5390015E-1,0E0,0E0],"parents":[2147483647,0,0,1,1,3,3,4,4,8,8],"right_children":[2,4,-1,6,8,-1,-1,-1,10,-1,-1],"split_conditions":[1.8120338E-3,8.58708E1,-4.252952E-2,1.0031743E0,8.8E1,3.4102306E-2,1.1489741E-2,-1.1511149E-2,8.874093E1,9.141387E-3,8.00009E-3],"split_indices":[1,5,0,9,5,0,0,0,5,0,0],"split_type":[0,0,0,0,0,0,0,0,0,0,0],"sum_hessian":[1.7552264E4,1.521985E4,2.3324143E3,3.0129868E3,1.2206863E4,1.641999E1,2.9965667E3,5.0371895E0,1.2201826E4,1.4854204E3,1.0716405E4],"tree_param":{"num_deleted":"0","num_feature":"13","num_nodes":"11","size_leaf_vector":"1"}},{"base_weights":[3.3605743E-2,1.0415125E-1,-4.0566185E-1,1.04894176E-1,-2.9214647E-1,3.314601E-2,-4.0714768E-1,7.367551E-2,1.119735E-1,-3.8503252E-2,-1.0128211E-3,-4.1246083E-1,-2.0928998E-2,-1.8596668E-2,7.5738356E-2,9.754913E-2,8.925322E-3,-3.0652056E-2,1.362979E-1,-4.14467E-2,-3.205628E-2,4.975754E-2,5.826372E-3,2.5090178E-2,7.5344467E-3,5.512022E-2,-1.5113722E-2],"categories":[],"categories_nodes":[],"categories_segments":[],"categories_sizes":[],"default_left":[0,0,0,0,0,0,0,0,0,0,0,0,0,0,0,0,0,0,0,0,0,0,0,0,0,0,0],"id":66,"left_children":[1,3,5,7,9,-1,11,13,15,-1,17,19,-1,-1,21,23,-1,-1,25,-1,-1,-1,-1,-1,-1,-1,-1],"loss_changes":[5.448615E2,4.3828125E0,3.1206665E0,3.2348633E0,1.3037896E0,0E0,1.3483582E0,1.7295284E0,2.1264648E-1,0E0,8.752572E-1,2.5637817E-1,0E0,0E0,1.7646675E0,2.1238995E-1,0E0,0E0,2.0867927E0,0E0,0E0,0E0,0E0,0E0,0E0,0E0,0E0],"parents":[2147483647,0,0,1,1,2,2,3,3,4,4,6,6,7,7,8,8,10,10,11,11,14,14,15,15,18,18],"right_children":[2,4,6,8,10,-1,12,14,16,-1,18,20,-1,-1,22,24,-1,-1,26,-1,-1,-1,-1,-1,-1,-1,-1],"split_conditions":[1.810799E-2,2.2595522E0,6.237957E1,8.58708E1,1.17E0,3.314601E-2,9E1,1.0031743E0,8.874093E1,-3.8503252E-2,6.770775E1,2E0,-2.0928998E-2,-1.8596668E-2,8.46875E1,8.7996765E1,8.925322E-3,-3.0652056E-2,-1.6076243E-1,-4.14467E-2,-3.205628E-2,4.975754E-2,5.826372E-3,2.5090178E-2,7.5344467E-3,5.512022E-2,-1.5113722E-2],"split_indices":[7,3,5,5,8,0,9,9,5,0,5,9,0,0,5,5,0,0,7,0,0,0,0,0,0,0,0],"split_type":[0,0,0,0,0,0,0,0,0,0,0,0,0,0,0,0,0,0,0,0,0,0,0,0,0,0,0],"sum_hessian":[1.7586295E4,1.5154382E4,2.4319138E3,1.5127985E4,2.639571E1,3.2930057E0,2.4286208E3,2.812414E3,1.2315571E4,1.4233004E1,1.2162707E1,2.3346462E3,9.397447E1,1.61882E1,2.7962258E3,1.4728625E3,1.0842709E4,3.8352761E0,8.327431E0,5.9527042E1,2.2751194E3,5.127732E0,2.7910981E3,5.7660437E0,1.4670964E3,3.34713E0,4.980301E0],"tree_param":{"num_deleted":"0","num_feature":"13","num_nodes":"27","size_leaf_vector":"1"}},{"base_weights":[-1.05589904E-1,-5.584221E-1,5.112622E-1,-7.4047702E-3,-4.3783978E-2,-1.7848212E-2,5.122951E-1,-0E0,4.0178865E-2],"categories":[],"categories_nodes":[],"categories_segments":[],"categories_sizes":[],"default_left":[0,0,0,0,0,0,0,0,0],"id":67,"left_children":[1,3,5,-1,-1,-1,7,-1,-1],"loss_changes":[2.8024053E3,1.4013672E-1,3.489502E0,0E0,0E0,0E0,5.83374E-1,0E0,0E0],"parents":[2147483647,0,0,1,1,2,2,6,6],"right_children":[2,4,6,-1,-1,-1,8,-1,-1],"split_conditions":[1.8120338E-3,-1.9418015E-1,8.402514E1,-7.4047702E-3,-4.3783978E-2,-1.7848212E-2,2.5E-1,-0E0,4.0178865E-2],"split_indices":[1,7,6,0,0,0,12,0,0],"split_type":[0,0,0,0,0,0,0,0,0],"sum_hessian":[1.0030908E4,5.7850557E3,4.245852E3,3.859562E0,5.7811963E3,4.9429317E0,4.240909E3,3.2771351E0,4.237632E3],"tree_param":{"num_deleted":"0","num_feature":"13","num_nodes":"9","size_leaf_vector":"1"}},{"base_weights":[2.8085072E-2,1.0966175E-1,-4.2278267E-2,1.4026417E-1,1.0209133E-1,2.497571E-2,1.3908812E-1,-1.8210217E-2,8.016469E-3,9.391132E-3,1.1269702E-2],"categories":[],"categories_nodes":[],"categories_segments":[],"categories_sizes":[],"default_left":[0,0,0,0,0,0,0,0,0,0,0],"id":68,"left_children":[1,3,-1,5,7,-1,9,-1,-1,-1,-1],"loss_changes":[8.024298E2,3.367447E0,0E0,3.4052658E-1,7.1157837E-1,0E0,1.1064911E-1,0E0,0E0,0E0,0E0],"parents":[2147483647,0,0,1,1,3,3,4,4,6,6],"right_children":[2,4,-1,6,8,-1,10,-1,-1,-1,-1],"split_conditions":[1.8120338E-3,8.58708E1,-4.2278267E-2,1.0031743E0,8.8E1,2.497571E-2,8.628156E1,-1.8210217E-2,8.016469E-3,9.391132E-3,1.1269702E-2],"split_indices":[1,5,0,9,5,0,9,0,0,0,0],"split_type":[0,0,0,0,0,0,0,0,0,0,0],"sum_hessian":[1.7336451E4,1.515898E4,2.1774714E3,2.9891765E3,1.2169804E4,1.5128317E1,2.974048E3,4.6444607E0,1.2165159E4,6.099714E2,2.364077E3],"tree_param":{"num_deleted":"0","num_feature":"13","num_nodes":"11","size_leaf_vector":"1"}},{"base_weights":[3.3547956E-2,9.8816164E-2,-3.9487958E-1,9.952998E-2,-3.1329465E-1,3.2007597E-2,-3.9637664E-1,7.046543E-2,1.0607099E-1,-3.799937E-2,-3.2931145E-2,-3.0867657E-2,-4.065804E-2,-1.6522038E-3,7.0834935E-2,8.286782E-3,4.5886166E-2,-2.9332895E-2,8.930258E-2,8.7487966E-2,5.188813E-3,5.3991444E-2,-2.6503338E-2,5.065659E-2,6.3139983E-3],"categories":[],"categories_nodes":[],"categories_segments":[],"categories_sizes":[],"default_left":[0,0,0,0,0,0,0,0,0,0,0,0,0,0,0,0,0,0,0,0,0,0,0,0,0],"id":69,"left_children":[1,3,5,7,9,-1,11,13,15,-1,17,-1,-1,-1,19,-1,-1,-1,21,23,-1,-1,-1,-1,-1],"loss_changes":[4.870612E2,4.3548737E0,2.8885498E0,2.7670593E0,9.0460396E-1,0E0,5.4504395E-2,1.22989655E-1,1.594284E0,0E0,6.6479003E-1,0E0,0E0,0E0,1.2577629E-1,0E0,0E0,0E0,2.411121E0,1.7977142E0,0E0,0E0,0E0,0E0,0E0],"parents":[2147483647,0,0,1,1,2,2,3,3,4,4,6,6,7,7,8,8,10,10,14,14,18,18,19,19],"right_children":[2,4,6,8,10,-1,12,14,16,-1,18,-1,-1,-1,20,-1,-1,-1,22,24,-1,-1,-1,-1,-1],"split_conditions":[1.810799E-2,2.2595522E0,8.1E1,3.858438E-1,1.17E0,3.2007597E-2,1.0254471E0,-1.9418015E-1,2.3771527E-1,-3.799937E-2,6.9839424E-1,-3.0867657E-2,-4.065804E-2,-1.6522038E-3,-1.376E-1,8.286782E-3,4.5886166E-2,-2.9332895E-2,1.8329409E0,1.7763107E0,5.188813E-3,5.3991444E-2,-2.6503338E-2,5.065659E-2,6.3139983E-3],"split_indices":[7,3,6,12,8,0,1,7,8,0,1,0,0,0,7,0,0,0,1,8,0,0,0,0,0],"split_type":[0,0,0,0,0,0,0,0,0,0,0,0,0,0,0,0,0,0,0,0,0,0,0,0,0],"sum_hessian":[1.7422207E4,1.512057E4,2.301636E3,1.5096352E4,2.4219282E1,3.2022967E0,2.2984338E3,2.7904707E3,1.2305881E4,1.3453891E1,1.076539E1,2.2591963E3,3.9237473E1,5.0490932E0,2.7854216E3,1.2299184E4,6.6969094E0,3.6022573E0,7.163133E0,5.7731824E2,2.2081033E3,3.318848E0,3.8442852E0,5.2151737E0,5.721031E2],"tree_param":{"num_deleted":"0","num_feature":"13","num_nodes":"25","size_leaf_vector":"1"}},{"base_weights":[-1.1324677E-1,-4.3532502E-2,4.9826276E-1,5.008312E-1,3.0188772E-1,3.9473E-2,3.3434454E-2,-4.1106854E-2,4.1737255E-1,3.7505813E-2,3.0956073E-2,-3.581616E-2,3.491591E-2],"categories":[],"categories_nodes":[],"categories_segments":[],"categories_sizes":[],"default_left":[0,0,0,0,0,0,0,0,0,0,0,0,0],"id":70,"left_children":[1,-1,3,5,7,-1,-1,-1,9,-1,11,-1,-1],"loss_changes":[2.590927E3,0E0,1.4676514E0,1.4129639E-1,5.5175204E0,0E0,0E0,0E0,9.062252E-1,0E0,1.9720612E0,0E0,0E0],"parents":[2147483647,0,0,2,2,3,3,4,4,8,8,10,10],"right_children":[2,-1,4,6,8,-1,-1,-1,10,-1,12,-1,-1],"split_conditions":[1.8120338E-3,-4.3532502E-2,2.242531E0,9E1,1E0,3.9473E-2,3.3434454E-2,-4.1106854E-2,5.1056104E0,3.7505813E-2,7.242025E0,-3.581616E-2,3.491591E-2],"split_indices":[10,0,0,9,4,0,0,0,11,0,0,0,0],"split_type":[0,0,0,0,0,0,0,0,0,0,0,0,0],"sum_hessian":[9.580478E3,5.5606626E3,4.0198152E3,3.9639536E3,5.5861534E1,3.808883E3,1.550707E2,5.9254665E0,4.993607E1,4.1721928E1,8.214142E0,3.125935E0,5.0882063E0],"tree_param":{"num_deleted":"0","num_feature":"13","num_nodes":"13","size_leaf_vector":"1"}},{"base_weights":[2.5200728E-2,1.0074079E-1,-4.2047366E-2,1.2126535E-1,7.2199134E-3,8.670882E-3,1.0225574E-2],"categories":[],"categories_nodes":[],"categories_segments":[],"categories_sizes":[],"default_left":[0,0,0,0,0,0,0],"id":71,"left_children":[1,3,-1,5,-1,-1,-1],"loss_changes":[7.308068E2,2.5622864E0,0E0,2.9354095E-1,0E0,0E0,0E0],"parents":[2147483647,0,0,1,1,3,3],"right_children":[2,4,-1,6,-1,-1,-1],"split_conditions":[1.8120338E-3,8.874093E1,-4.2047366E-2,8.628156E1,7.2199134E-3,8.670882E-3,1.0225574E-2],"split_indices":[1,5,0,9,0,0,0],"split_type":[0,0,0,0,0,0,0],"sum_hessian":[1.722835E4,1.5187384E4,2.0409667E3,4.4716875E3,1.0715696E4,2.1062712E3,2.3654163E3],"tree_param":{"num_deleted":"0","num_feature":"13","num_nodes":"7","size_leaf_vector":"1"}},{"base_weights":[3.437504E-2,-3.815981E-1,9.518634E-2,3.0053413E-2,-3.838965E-1,5.8367997E-3,8.1000505E-3,-8.011547E-2,-3.8768408E-1,5.271316E-1,-3.0246198E-1,-3.9238587E-1,-2.076234E-2,1.9931109E-3,6.459455E-2,-3.7175577E-2,-0E0,-4.0819895E-2,-3.0459069E-2,3.3230476E-2,-3.0711954E-2],"categories":[],"categories_nodes":[],"categories_segments":[],"categories_sizes":[],"default_left":[0,0,0,0,0,0,0,0,0,0,0,0,0,0,0,0,0,0,0,0,0],"id":72,"left_children":[1,3,5,-1,7,-1,-1,9,11,13,15,17,-1,-1,-1,-1,19,-1,-1,-1,-1],"loss_changes":[4.385907E2,4.003174E0,2.4540558E0,0E0,2.2557678E0,0E0,0E0,4.042775E0,8.132019E-1,6.547499E-1,1.0514102E0,3.5287476E-1,0E0,0E0,0E0,0E0,1.7475526E0,0E0,0E0,0E0,0E0],"parents":[2147483647,0,0,1,1,2,2,4,4,7,7,8,8,9,9,10,10,11,11,16,16],"right_children":[2,4,6,-1,8,-1,-1,10,12,14,16,18,-1,-1,-1,-1,20,-1,-1,-1,-1],"split_conditions":[9.99E2,8.402514E1,8.874093E1,3.0053413E-2,4.8607817E-1,5.8367997E-3,8.1000505E-3,4E0,9E1,8.9614016E-1,5.1056104E0,2E0,-2.076234E-2,1.9931109E-3,6.459455E-2,-3.7175577E-2,6.0193214E0,-4.0819895E-2,-3.0459069E-2,3.3230476E-2,-3.0711954E-2],"split_indices":[6,6,5,0,12,0,0,2,9,8,2,9,0,0,0,0,2,0,0,0,0],"split_type":[0,0,0,0,0,0,0,0,0,0,0,0,0,0,0,0,0,0,0,0,0],"sum_hessian":[1.734277E4,2.2102964E3,1.5132473E4,5.514643E0,2.2047817E3,4.297166E3,1.0835308E4,2.9155014E1,2.1756267E3,6.8631167E0,2.2291897E1,2.0894155E3,8.621108E1,3.557114E0,3.306003E0,1.3274961E1,9.016935E0,5.236281E1,2.0370529E3,3.9179788E0,5.098957E0],"tree_param":{"num_deleted":"0","num_feature":"13","num_nodes":"21","size_leaf_vector":"1"}},{"base_weights":[-1.18583575E-1,4.8622075E-1,-4.3311685E-2,-1.390405E-2,4.8713696E-1,4.8799375E-1,-0E0,3.849961E-2,3.145068E-2,-3.419657E-2,3.0078204E-2],"categories":[],"categories_nodes":[],"categories_segments":[],"categories_sizes":[],"default_left":[0,0,0,0,0,0,0,0,0,0,0],"id":73,"left_children":[1,3,-1,-1,5,7,9,-1,-1,-1,-1],"loss_changes":[2.3964663E3,2.5569458E0,0E0,0E0,1.5123901E0,4.1271973E-1,1.4276475E0,0E0,0E0,0E0,0E0],"parents":[2147483647,0,0,1,1,4,4,5,5,6,6],"right_children":[2,4,-1,-1,6,8,10,-1,-1,-1,-1],"split_conditions":[9.99E2,8.402514E1,-4.3311685E-2,-1.390405E-2,5.1056104E0,9E1,7.242025E0,3.849961E-2,3.145068E-2,-3.419657E-2,3.0078204E-2],"split_indices":[6,6,0,0,11,9,0,0,0,0,0],"split_type":[0,0,0,0,0,0,0,0,0,0,0],"sum_hessian":[9.127892E3,3.8130278E3,5.314864E3,4.2207847E0,3.808807E3,3.801793E3,7.0140615E0,3.6565146E3,1.4527823E2,3.03851E0,3.9755511E0],"tree_param":{"num_deleted":"0","num_feature":"13","num_nodes":"11","size_leaf_vector":"1"}},{"base_weights":[2.6710268E-2,9.7620405E-2,-4.183487E-2,9.266366E-2,9.735552E-3,8.096708E-3,7.0937355E-3],"categories":[],"categories_nodes":[],"categories_segments":[],"categories_sizes":[],"default_left":[0,0,0,0,0,0,0],"id":74,"left_children":[1,3,-1,5,-1,-1,-1],"loss_changes":[6.799151E2,1.8740692E0,0E0,1.80336E-1,0E0,0E0,0E0],"parents":[2147483647,0,0,1,1,3,3],"right_children":[2,4,-1,6,-1,-1,-1],"split_conditions":[1.8120338E-3,8.628156E1,-4.183487E-2,8.874093E1,9.735552E-3,8.096708E-3,7.0937355E-3],"split_indices":[10,9,0,5,0,0,0],"split_type":[0,0,0,0,0,0,0],"sum_hessian":[1.7112152E4,1.5191725E4,1.9204282E3,1.2825305E4,2.3664207E3,2.1129133E3,1.0712391E4],"tree_param":{"num_deleted":"0","num_feature":"13","num_nodes":"7","size_leaf_vector":"1"}},{"base_weights":[3.685399E-2,9.284407E-2,-3.6850017E-1,7.136274E-2,7.939805E-3,-3.736904E-1,-5.3827696E-2,6.6841856E-2,7.958182E-2,-3.7961474E-1,-1.758955E-2,4.828733E-2,-2.4088766E-1,-2.21765E-2,6.80822E-2,1.9117946E-2,6.153623E-3,-4.0407237E-2,-2.9460423E-2,-3.856109E-2,5.767988E-2,-0E0,5.355987E-3,-2.6014093E-2,2.7793387E-1,5.889303E-2,-1.3001816E-3],"categories":[],"categories_nodes":[],"categories_segments":[],"categories_sizes":[],"default_left":[0,0,0,0,0,0,0,0,0,0,0,0,0,0,0,0,0,0,0,0,0,0,0,0,0,0,0],"id":75,"left_children":[1,3,5,7,-1,9,11,13,15,17,-1,-1,19,-1,21,-1,-1,-1,-1,-1,23,-1,-1,-1,25,-1,-1],"loss_changes":[3.9218924E2,2.6587372E0,3.1732788E0,7.541275E-2,0E0,1.4233093E0,4.5030484E0,1.1244488E0,6.816864E-2,3.6297607E-1,0E0,0E0,2.5000663E0,0E0,7.5858116E-2,0E0,0E0,0E0,0E0,0E0,1.1868596E0,0E0,0E0,0E0,1.7879107E0,0E0,0E0],"parents":[2147483647,0,0,1,1,2,2,3,3,5,5,6,6,7,7,8,8,9,9,12,12,14,14,20,20,24,24],"right_children":[2,4,6,8,-1,10,12,14,16,18,-1,-1,20,-1,22,-1,-1,-1,-1,-1,24,-1,-1,-1,26,-1,-1],"split_conditions":[1.8120338E-3,8.874093E1,2.242531E0,8.58708E1,7.939805E-3,9E1,1E0,1E0,8.8E1,2E0,-1.758955E-2,4.828733E-2,1.17E0,-2.21765E-2,1.0031743E0,1.9117946E-2,6.153623E-3,-4.0407237E-2,-2.9460423E-2,-3.856109E-2,6.770775E1,-0E0,5.355987E-3,-2.6014093E-2,1.899089E0,5.889303E-2,-1.3001816E-3],"split_indices":[10,5,0,5,0,9,4,0,5,9,0,0,8,0,9,0,0,0,0,0,5,0,0,0,10,0,0],"split_type":[0,0,0,0,0,0,0,0,0,0,0,0,0,0,0,0,0,0,0,0,0,0,0,0,0,0,0],"sum_hessian":[1.7284977E4,1.5188944E4,2.096032E3,4.311065E3,1.087788E4,2.0601548E3,3.587716E1,2.8290828E3,1.481982E3,1.9768032E3,8.335146E1,6.797461E0,2.9079697E1,7.8004994E0,2.8212822E3,5.1096954E0,1.4768723E3,4.612817E1,1.930675E3,1.652267E1,1.2557026E1,4.6026793E0,2.8166797E3,3.488956E0,9.06807E0,3.730086E0,5.337984E0],"tree_param":{"num_deleted":"0","num_feature":"13","num_nodes":"27","size_leaf_vector":"1"}},{"base_weights":[-1.24176435E-1,-5.499498E-1,4.7674495E-1,-8.327679E-5,-4.312213E-2,4.7961554E-1,2.6986593E-1,3.7832282E-2,3.121647E-2,4.7661918E-1,-0E0,-0E0,4.2974174E-2,2.3257656E-1,-4.3735564E-2,-0E0,3.535252E-2,3.5456497E-2,-4.4412445E-2],"categories":[],"categories_nodes":[],"categories_segments":[],"categories_sizes":[],"default_left":[0,0,0,0,0,0,0,0,